<?xml version="1.0" encoding="UTF-8"?>
<!-- This network was created in GeNIe Academic, which can be used for academic teaching and research purposes only -->
<smile version="1.0" id="Network1" numsamples="10000" discsamples="10000">
	<nodes>
		<cpt id="n4_Transmission">
			<state id="None" />
			<state id="ATAGI_Low" />
			<state id="ATAGI_Med" />
			<state id="ATAGI_High" />
			<state id="One_percent" />
			<state id="Two_percent" />
			<state id="Five_percent" />
			<state id="Ten_percent" />
			<probabilities>0.125 0.125 0.125 0.125 0.125 0.125 0.125 0.1249999999999999</probabilities>
		</cpt>
		<cpt id="n3_Variant">
			<state id="Delta" />
			<state id="Omicron" />
			<state id="Other" />
			<probabilities>0.09 0.9 0.01</probabilities>
		</cpt>
		<cpt id="n5_Sex">
			<state id="Male" />
			<state id="Female" />
			<parents>n3_Variant</parents>
			<probabilities>0.512303196 0.487696804 0.487628783 0.512371217 0.5 0.5</probabilities>
		</cpt>
		<cpt id="n1_Dose">
			<state id="None" />
			<state id="OneAZ_under_3_weeks" />
			<state id="TwoAZ_under_2_months" />
			<state id="TwoAZ_2to4_months" />
			<state id="TwoAZ_4to6_months" />
			<state id="TwoAZ_OnePfz_under_2_months" />
			<probabilities>0.05 0.05 0.2 0.2 0.2 0.3</probabilities>
		</cpt>
		<cpt id="n2_Age">
			<state id="age_12_19" />
			<state id="age_20_29" />
			<state id="Age_30_39" />
			<state id="age_40_49" />
			<state id="age_50_59" />
			<state id="age_60_69" />
			<state id="age_70plus" />
			<parents>n3_Variant n5_Sex</parents>
			<probabilities>0.146411483 0.246178383 0.212538339 0.150619556 0.113507545 0.06867869 0.062066004 0.145447516 0.241703718 0.207539146 0.147586829 0.113886204 0.069269927 0.07456666000000001 0.110340508 0.330410272 0.207119021 0.131552858 0.107158979 0.065887664 0.047530698 0.117701351 0.327456385 0.200188293 0.1373179 0.111018609 0.061548645 0.044768817 0.111521263 0.165454987 0.171870006 0.150766278 0.142734344 0.123334978 0.134318145 0.111521263 0.165454987 0.171870006 0.150766278 0.142734344 0.123334978 0.134318145</probabilities>
		</cpt>
		<cpt id="n11_Vac_effectiveness_infection">
			<state id="Effective" />
			<state id="Not_effective" />
			<parents>n3_Variant n1_Dose</parents>
			<probabilities>0 1 0.454 0.546 0.7985 0.2015 0.614 0.386 0.461 0.539 0.9273 0.0727 0 1 0.2175 0.7825 0.3825 0.6175 0.208 0.792 0.0185 0.9815 0.5827 0.4173 0 1 0.5 0.5 0.5 0.5 0.5 0.5 0.5 0.5 0.5 0.5</probabilities>
		</cpt>
		<cpt id="n13_Infection_at_10percent">
			<state id="Yes" />
			<state id="No" />
			<parents>n3_Variant n5_Sex n2_Age</parents>
			<probabilities>0.141270822 0.858729178 0.140712727 0.859287273 0.118254164 0.881745836 0.09839434 0.90160566 0.075530474 0.924469526 0.05143924 0.94856076 0.038959464 0.9610405359999999 0.134087259 0.865912741 0.128846737 0.871153263 0.11246359 0.8875364100000001 0.093767005 0.906232995 0.07151648400000001 0.928483516 0.049456957 0.950543043 0.041561051 0.958438949 0.101612381 0.898387619 0.21968419 0.7803158100000001 0.124921845 0.875078155 0.08661635400000001 0.913383646 0.075070796 0.924929204 0.0521786 0.9478214 0.033733684 0.966266316 0.115556311 0.884443689 0.228679408 0.771320592 0.124743877 0.875256123 0.09434218900000001 0.905657811 0.08184714999999999 0.91815285 0.051246919 0.948753081 0.033668035 0.966331965 0.1 0.9 0.1 0.9 0.1 0.9 0.1 0.9 0.1 0.9 0.1 0.9 0.1 0.9 0.1 0.9 0.1 0.9 0.1 0.9 0.1 0.9 0.1 0.9 0.1 0.9 0.1 0.9</probabilities>
		</cpt>
		<cpt id="n12_Vac_effectiveness_Death">
			<state id="Effective" />
			<state id="Not_effective" />
			<parents>n3_Variant n1_Dose</parents>
			<probabilities>0 1 0.8383 0.1617 0.925 0.075 0.883 0.117 0.734 0.266 0.981 0.019 0 1 0.477 0.523 0.526 0.474 0.526 0.474 0.289 0.711 0.883 0.117 0 1 0.5 0.5 0.5 0.5 0.5 0.5 0.5 0.5 0.5 0.5</probabilities>
		</cpt>
		<cpt id="n14_Infection_at_current_transmission">
			<state id="Yes" />
			<state id="No" />
			<parents>n13_Infection_at_10percent n11_Vac_effectiveness_infection n4_Transmission</parents>
			<probabilities>0 1 0 1 0 1 0 1 0 1 0 1 0 1 0 1 0 1 0.001566667 0.998433333 0.0149 0.9851 0.191966667 0.808033333 0.1 0.9 0.2 0.8 0.5 0.5 1 0 0 1 0 1 0 1 0 1 0 1 0 1 0 1 0 1 0 1 0 1 0 1 0 1 0 1 0 1 0 1 0 1</probabilities>
		</cpt>
		<cpt id="n23_Die_from_Covid">
			<state id="Yes" />
			<state id="No" />
			<parents>n14_Infection_at_current_transmission n12_Vac_effectiveness_Death n3_Variant n5_Sex n2_Age</parents>
			<probabilities>0 1 0 1 0 1 0 1 0 1 0 1 0 1 0 1 0 1 0 1 0 1 0 1 0 1 0 1 0 1 0 1 0 1 0 1 0 1 0 1 0 1 0 1 0 1 0 1 0 1 0 1 0 1 0 1 0 1 0 1 0 1 0 1 0 1 0 1 0 1 0 1 0 1 0 1 0 1 0 1 0 1 0 1 6.703309999329669e-05 0.9999329669000067 0.000299013 0.999700987 0.000692681 0.999307319 0.002280687 0.9977193130000001 0.007565932 0.992434068 0.025723473 0.974276527 0.155959676 0.844040324 7.088180001417637e-05 0.9999291181999858 0.000159957 0.999840043 0.000434675 0.9995653249999999 0.001047852 0.998952148 0.004413262 0.995586738 0.010790698 0.989209302 0.12996889 0.87003111 0 1 1.9611e-05 0.999980389 7.299799999999999e-05 0.999927002 0.000131348 0.999868652 0.000342652 0.9996573479999999 0.001114571 0.998885429 0.015086795 0.984913205 0 1 0 1 0 1 5.987839997604864e-05 0.999940121600024 0.000296252 0.9997037479999999 0.001168927 0.998831073 0.010927958 0.989072042 0.5 0.5 0.5 0.5 0.5 0.5 0.5 0.5 0.5 0.5 0.5 0.5 0.5 0.5 0.5 0.5 0.5 0.5 0.5 0.5 0.5 0.5 0.5 0.5 0.5 0.5 0.5 0.5 0 1 0 1 0 1 0 1 0 1 0 1 0 1 0 1 0 1 0 1 0 1 0 1 0 1 0 1 0 1 0 1 0 1 0 1 0 1 0 1 0 1 0 1 0 1 0 1 0 1 0 1 0 1 0 1 0 1 0 1 0 1 0 1 0 1 0 1 0 1 0 1 0 1 0 1 0 1 0 1 0 1 0 1 0 1 0 1 0 1 0 1 0 1 0 1 0 1 0 1 0 1 0 1 0 1 0 1 0 1 0 1 0 1 0 1 0 1 0 1 0 1 0 1 0 1 0 1 0 1 0 1 0 1 0 1 0 1 0 1 0 1 0 1 0 1 0 1 0 1 0 1 0 1 0 1 0 1 0 1 0 1 0 1 0 1 0 1</probabilities>
		</cpt>
		<cpt id="n8_CSVT">
			<state id="Yes" />
			<state id="No" />
			<parents>n2_Age</parents>
			<probabilities>3.8e-07 0.99999962 6.4e-07 0.99999936 6.4e-07 0.99999936 6.4e-07 0.99999936 7.5e-07 0.99999925 7.5e-07 0.99999925 7.3e-07 0.99999927</probabilities>
		</cpt>
		<cpt id="n6_TTS">
			<state id="Yes" />
			<state id="No" />
			<parents>n1_Dose n2_Age</parents>
			<probabilities>0 1 0 1 0 1 0 1 0 1 0 1 0 1 2.5e-05 0.9999749999999999 2.5e-05 0.9999749999999999 2.5e-05 0.9999749999999999 2.5e-05 0.9999749999999999 2.7e-05 0.999973 1.6e-05 0.999984 1.85e-05 0.9999815 1.8e-06 0.9999981999999999 1.8e-06 0.9999981999999999 1.8e-06 0.9999981999999999 1.8e-06 0.9999981999999999 1.8e-06 0.9999981999999999 1.8e-06 0.9999981999999999 1.8e-06 0.9999981999999999 1.8e-06 0.9999981999999999 1.8e-06 0.9999981999999999 1.8e-06 0.9999981999999999 1.8e-06 0.9999981999999999 1.8e-06 0.9999981999999999 1.8e-06 0.9999981999999999 1.8e-06 0.9999981999999999 1.8e-06 0.9999981999999999 1.8e-06 0.9999981999999999 1.8e-06 0.9999981999999999 1.8e-06 0.9999981999999999 1.8e-06 0.9999981999999999 1.8e-06 0.9999981999999999 1.8e-06 0.9999981999999999 0 1 0 1 0 1 0 1 0 1 0 1 0 1</probabilities>
		</cpt>
		<cpt id="n18_Die_from_TTS_AZ">
			<state id="Yes" />
			<state id="No" />
			<parents>n6_TTS</parents>
			<probabilities>0.05 0.95 0 1</probabilities>
		</cpt>
		<cpt id="n16_PVT_Covid">
			<state id="Yes" />
			<state id="No" />
			<parents>n14_Infection_at_current_transmission n5_Sex</parents>
			<probabilities>0.000482596 0.999517404 0.000318407 0.999681593 0 1 0 1</probabilities>
		</cpt>
		<cpt id="n9_PVT">
			<state id="Yes" />
			<state id="No" />
			<parents>n2_Age</parents>
			<probabilities>0 1 2e-07 0.9999998 2.6e-07 0.99999974 5.6e-07 0.99999944 9.1e-07 0.99999909 1.76e-06 0.99999824 1.96e-06 0.99999804</probabilities>
		</cpt>
		<cpt id="n21_Die_from_PVT">
			<state id="Yes" />
			<state id="No" />
			<parents>n9_PVT</parents>
			<probabilities>0.27 0.73 0 1</probabilities>
		</cpt>
		<cpt id="n20_Die_from_CSVT">
			<state id="Yes" />
			<state id="No" />
			<parents>n8_CSVT</parents>
			<probabilities>0.07000000000000001 0.93 0 1</probabilities>
		</cpt>
		<cpt id="n15_CSVT_Covid">
			<state id="Yes" />
			<state id="No" />
			<parents>n14_Infection_at_current_transmission n5_Sex</parents>
			<probabilities>2.88732e-05 0.9999711268 5.41969e-05 0.9999458031 0 1 0 1</probabilities>
		</cpt>
		<cpt id="n24_Die_from_CSVT_Covid">
			<state id="Yes" />
			<state id="No" />
			<parents>n15_CSVT_Covid</parents>
			<probabilities>0.174 0.826 0 1</probabilities>
		</cpt>
		<cpt id="n25_Die_from_PVT_Covid">
			<state id="Yes" />
			<state id="No" />
			<parents>n16_PVT_Covid</parents>
			<probabilities>0.199 0.801 0 1</probabilities>
		</cpt>
		<cpt id="n7_VacMyo">
			<state id="Yes" />
			<state id="No" />
			<parents>n1_Dose n5_Sex n2_Age</parents>
			<probabilities>0 1 0 1 0 1 0 1 0 1 0 1 0 1 0 1 0 1 0 1 0 1 0 1 0 1 0 1 0 1 0 1 0 1 0 1 0 1 0 1 0 1 0 1 0 1 0 1 0 1 0 1 0 1 0 1 0 1 0 1 0 1 0 1 0 1 0 1 0 1 0 1 0 1 0 1 0 1 0 1 0 1 0 1 0 1 0 1 0 1 0 1 0 1 0 1 0 1 0 1 0 1 0 1 0 1 0 1 0 1 0 1 0 1 0 1 0 1 0 1 0 1 0 1 0 1 0 1 0 1 0 1 0 1 0 1 0 1 0 1 2.375e-05 0.99997625 1.7e-05 0.999983 1.7e-05 0.999983 5e-06 0.999995 7e-06 0.999993 4e-06 0.999996 0 1 5.5e-06 0.9999945 7e-06 0.999993 8e-06 0.999992 5e-06 0.999995 2e-06 0.9999980000000001 6e-06 0.999994 4e-06 0.999996</probabilities>
		</cpt>
		<cpt id="n19_Die_from_vaccine_associatedmyocarditis">
			<state id="Yes" />
			<state id="No" />
			<parents>n7_VacMyo</parents>
			<probabilities>0.00342075 0.99657925 0 1</probabilities>
		</cpt>
		<cpt id="n17_COV_Myo">
			<state id="Yes" />
			<state id="No" />
			<parents>n14_Infection_at_current_transmission n5_Sex n2_Age</parents>
			<probabilities>0.137432188 0.862567812 0.020813653 0.979186347 0.023443039 0.976556961 0.024874318 0.975125682 0.024129155 0.975870845 0.022218383 0.977781617 0.019779922 0.980220078 0.01659751 0.98340249 0.024281303 0.975718697 0.02401673 0.97598327 0.025891257 0.9741087430000001 0.023955586 0.976044414 0.022354078 0.977645922 0.019411765 0.980588235 0 1 0 1 0 1 0 1 0 1 0 1 0 1 0 1 0 1 0 1 0 1 0 1 0 1 0 1</probabilities>
		</cpt>
		<cpt id="n26_Die_from_COV_Myo">
			<state id="Yes" />
			<state id="No" />
			<parents>n17_COV_Myo n5_Sex n2_Age</parents>
			<probabilities>0.01 0.99 0.01 0.99 0.01 0.99 0.017241379 0.982758621 0.035426731 0.964573269 0.07387247299999999 0.926127527 0.151445967 0.848554033 0.01 0.99 0.01 0.99 0.01 0.99 0.01 0.99 0.013990268 0.986009732 0.040466392 0.959533608 0.126033058 0.873966942 0 1 0 1 0 1 0 1 0 1 0 1 0 1 0 1 0 1 0 1 0 1 0 1 0 1 0 1</probabilities>
		</cpt>
		<cpt id="n10_BackMyo">
			<state id="Yes" />
			<state id="No" />
			<parents>n5_Sex n2_Age</parents>
			<probabilities>1.896e-05 0.999981042 4.008e-05 0.999959917 4.008e-05 0.999959917 4.008e-05 0.999959917 4.442e-05 0.999955583 5.092e-05 0.999949083 5.392e-05 0.999946076 1.002e-05 0.999989979 1.733e-05 0.999982667 2.058e-05 0.999979417 2.383e-05 0.999976167 2.871e-05 0.999971292 3.575e-05 0.99996425 3.964e-05 0.999960357</probabilities>
		</cpt>
		<cpt id="n22_Die_from_myocarditis__background">
			<state id="Yes" />
			<state id="No" />
			<parents>n10_BackMyo n5_Sex n2_Age</parents>
			<probabilities>0.0134066 0.98659341 0.0120582 0.98794179 0.022869 0.97713098 0.0330561 0.96694387 0.0257036 0.97429644 0.0247136 0.97528642 0.0299836 0.97001639 0.0245322 0.97546778 0.0173077 0.98269231 0.0214575 0.97854251 0.0304196 0.96958042 0.030479 0.9695210399999999 0.0291375 0.97086247 0.0427022 0.95729776 0 1 0 1 0 1 0 1 0 1 0 1 0 1 0 1 0 1 0 1 0 1 0 1 0 1 0 1</probabilities>
		</cpt>
	</nodes>
	<extensions>
		<genie version="1.0" app="GeNIe 3.0.6518.0 ACADEMIC" name="Network1">
			<node id="n13_Infection_at_10percent">
				<name>Relative risk of symptomatic infection by age, sex, and variant (if overall risk 10%) (n13)</name>
				<interior color="efefef" />
				<outline color="000000" />
				<font color="000000" name="Arial" size="9" bold="true" />
				<position>1098 197 1303 294</position>
				<barchart width="223" height="109" />
			</node>
			<node id="n23_Die_from_Covid">
				<name>Die from Covid (n23)</name>
				<interior color="ebd7ff" />
				<outline color="000000" />
				<font color="000000" name="Arial" size="9" />
				<position>1156 569 1258 632</position>
				<barchart active="true" width="154" height="57" />
			</node>
			<node id="n5_Sex">
				<name>Sex (n5)</name>
				<interior color="ffcc99" />
				<outline color="000080" />
				<font color="000000" name="Arial" size="9" />
				<position>978 375 1030 407</position>
				<barchart active="true" width="86" height="57" />
			</node>
			<node id="n11_Vac_effectiveness_infection">
				<name>Vaccine effectiveness against symptomatic infection (n11)</name>
				<interior color="efefef" />
				<outline color="000000" />
				<font color="000000" name="Arial" size="9" bold="true" />
				<position>747 189 896 282</position>
				<barchart active="true" width="159" height="105" />
			</node>
			<node id="n12_Vac_effectiveness_Death">
				<name>Vaccine effectiveness against death if infected (n12)</name>
				<interior color="efefef" />
				<outline color="000000" />
				<font color="000000" name="Arial" size="9" bold="true" />
				<position>1123 346 1261 432</position>
				<barchart active="true" width="153" height="87" />
			</node>
			<node id="n4_Transmission">
				<name>Community transmission at x% over 2 months (n4)</name>
				<interior color="ffcc99" />
				<outline color="000000" />
				<font color="000000" name="Arial" size="9" />
				<position>1427 135 1475 165</position>
				<barchart active="true" width="230" height="187" />
			</node>
			<node id="n14_Infection_at_current_transmission">
				<name>Risk of symptomatic infection under current transmission and vaccination status (n14)</name>
				<interior color="efefef" />
				<outline color="000000" />
				<font color="000000" name="Arial" size="9" />
				<position>1373 327 1570 450</position>
				<barchart active="true" width="305" height="84" />
			</node>
			<node id="n2_Age">
				<name>Age group (n2)</name>
				<interior color="ffcc99" />
				<outline color="000000" />
				<font color="000000" name="Arial" size="9" />
				<position>445 51 558 121</position>
				<barchart active="true" width="203" height="152" />
			</node>
			<node id="n3_Variant">
				<name>Variant (n3)</name>
				<interior color="ffcc99" />
				<outline color="000000" />
				<font color="000000" name="Arial" size="9" />
				<position>836 87 890 120</position>
				<barchart active="true" width="221" height="76" />
			</node>
			<node id="n1_Dose">
				<name>AZ vaccine dose &amp; time since dose 2 (n1)</name>
				<interior color="ffcc99" />
				<outline color="000000" />
				<font color="000000" name="Arial" size="9" />
				<position>135 161 189 194</position>
				<barchart active="true" width="239" height="150" />
			</node>
			<node id="n8_CSVT">
				<name>CSVT over 6 weeks (n8)</name>
				<interior color="efefef" />
				<outline color="000000" />
				<font color="000000" name="Arial" size="9" />
				<position>269 351 353 403</position>
				<barchart active="true" width="256" height="57" />
			</node>
			<node id="n18_Die_from_TTS_AZ">
				<name>Die from TTS (5%) (n18)</name>
				<interior color="ebd7ff" />
				<outline color="000000" />
				<font color="000000" name="Arial" size="9" />
				<position>111 411 212 474</position>
				<barchart active="true" width="257" height="57" />
			</node>
			<textbox>
				<caption>AZ-AZ-Pfz\nDelta &amp; Omicron\nJan 2022</caption>
				<font color="000000" name="Arial" size="22" />
				<position>41 0 256 99</position>
			</textbox>
			<node id="n16_PVT_Covid">
				<name>PVT from Covid (n16)</name>
				<interior color="efefef" />
				<outline color="000000" />
				<font color="000000" name="Arial" size="9" />
				<position>1496 499 1591 558</position>
				<barchart active="true" width="158" height="57" />
			</node>
			<node id="n6_TTS">
				<name>TTS (n6)</name>
				<interior color="efefef" />
				<outline color="000000" />
				<font color="000000" name="Arial" size="9" bold="true" />
				<position>128 290 201 335</position>
				<barchart active="true" width="250" height="57" />
			</node>
			<node id="n9_PVT">
				<name>PVT over 6 weeks (n9)</name>
				<interior color="efefef" />
				<outline color="000000" />
				<font color="000000" name="Arial" size="9" />
				<position>398 412 504 478</position>
				<barchart active="true" width="224" height="57" />
			</node>
			<node id="n21_Die_from_PVT">
				<name>Die from PVT (n21)</name>
				<interior color="ebd7ff" />
				<outline color="000000" />
				<font color="000000" name="Arial" size="9" />
				<position>408 565 492 617</position>
				<barchart active="true" width="290" height="57" />
			</node>
			<node id="n20_Die_from_CSVT">
				<name>Die from CSVT (n20)</name>
				<interior color="ebd7ff" />
				<outline color="000000" />
				<font color="000000" name="Arial" size="9" />
				<position>265 483 356 539</position>
				<barchart active="true" width="236" height="57" />
			</node>
			<node id="n15_CSVT_Covid">
				<name>CSVT from Covid (n15)</name>
				<interior color="efefef" />
				<outline color="000000" />
				<font color="000000" name="Arial" size="9" />
				<position>1332 553 1435 617</position>
				<barchart active="true" width="153" height="57" />
			</node>
			<node id="n24_Die_from_CSVT_Covid">
				<name>Die from Covid related CSVT (n24)</name>
				<interior color="ebd7ff" />
				<outline color="000000" />
				<font color="000000" name="Arial" size="9" />
				<position>1315 700 1426 769</position>
				<barchart active="true" width="269" height="74" />
			</node>
			<node id="n25_Die_from_PVT_Covid">
				<name>Die from Covid related PVT (n25)</name>
				<interior color="ebd7ff" />
				<outline color="000000" />
				<font color="000000" name="Arial" size="9" />
				<position>1596 697 1707 766</position>
				<barchart active="true" width="267" height="75" />
			</node>
			<node id="n7_VacMyo">
				<name>Vaccine-associated myocarditis (n7)</name>
				<interior color="ccffff" />
				<outline color="000000" />
				<font color="000000" name="Arial" size="8" />
				<position>604 372 719 443</position>
				<barchart active="true" width="141" height="78" />
			</node>
			<node id="n19_Die_from_vaccine_associatedmyocarditis">
				<name>Die from vaccine-associated myocarditis (n19)</name>
				<interior color="ccffff" />
				<outline color="000000" />
				<font color="000000" name="Arial" size="8" />
				<position>732 522 858 600</position>
				<barchart active="true" width="177" height="78" />
			</node>
			<node id="n26_Die_from_COV_Myo">
				<name>n26 Die from COVID-associated myocarditis </name>
				<interior color="ccffff" />
				<outline color="000000" />
				<font color="000000" name="Arial" size="8" />
				<position>873 651 1008 722</position>
				<barchart active="true" width="177" height="78" />
			</node>
			<node id="n17_COV_Myo">
				<name>Covid associated myocarditis (n17)</name>
				<interior color="ccffff" />
				<outline color="000000" />
				<font color="000000" name="Arial" size="8" />
				<position>985 545 1098 615</position>
				<barchart active="true" width="128" height="78" />
			</node>
			<node id="n10_BackMyo">
				<name>Background myocarditis over 2 months (n10)</name>
				<interior color="ccffff" />
				<outline color="000080" />
				<font color="000000" name="Arial" size="9" />
				<position>543 529 591 559</position>
				<barchart active="true" width="155" height="72" />
			</node>
			<node id="n22_Die_from_myocarditis__background">
				<name>Die from myocarditis (background) (n22)</name>
				<interior color="ccffff" />
				<outline color="000080" />
				<font color="000000" name="Arial" size="9" />
				<position>642 663 745 727</position>
				<barchart active="true" width="150" height="73" />
			</node>
		</genie>
	</extensions>
</smile>
