<?xml version="1.0" encoding="UTF-8"?>
<!-- This network was created in GeNIe Academic, which can be used for academic teaching and research purposes only -->
<smile version="1.0" id="Network1" numsamples="10000" discsamples="10000">
	<nodes>
		<cpt id="n4_Community_transmission">
			<state id="None_0" />
			<state id="ATAGI_Low" />
			<state id="ATAGI_Med" />
			<state id="ATAGI_High" />
			<state id="One_percent" />
			<state id="Two_percent" />
			<state id="Five_percent" />
			<state id="Ten_percent" />
			<probabilities>0.125 0.125 0.125 0.125 0.125 0.125 0.125 0.125</probabilities>
		</cpt>
		<cpt id="Variant">
			<state id="Delta" />
			<state id="Omicron" />
			<state id="Other" />
			<probabilities>0.09 0.9 0.01</probabilities>
		</cpt>
		<cpt id="n3_Sex">
			<state id="Male" />
			<state id="Female" />
			<parents>Variant</parents>
			<probabilities>0.512303196 0.487696804 0.487628783 0.512371217 0.5 0.5</probabilities>
		</cpt>
		<cpt id="n2_Age_group">
			<state id="Age_12_19" />
			<state id="Age_20_29" />
			<state id="Age_30_39" />
			<state id="Age_40_49" />
			<state id="Age_50_59" />
			<state id="Age_60_69" />
			<state id="Age_70plus" />
			<parents>Variant n3_Sex</parents>
			<probabilities>0.146411483 0.246178383 0.212538339 0.150619556 0.113507545 0.06867869 0.062066004 0.145447516 0.241703718 0.207539146 0.147586829 0.113886204 0.069269927 0.07456666000000001 0.110340508 0.330410272 0.207119021 0.131552858 0.107158979 0.065887664 0.047530698 0.117701351 0.327456385 0.200188293 0.1373179 0.111018609 0.061548645 0.044768817 0.111521263 0.165454987 0.171870006 0.150766278 0.142734344 0.123334978 0.134318145 0.111521263 0.165454987 0.171870006 0.150766278 0.142734344 0.123334978 0.134318145</probabilities>
		</cpt>
		<cpt id="n1_Pfizer_dose">
			<state id="None" />
			<state id="One_at_3wks" />
			<state id="Two_under_2mths" />
			<state id="Two_2_4mths" />
			<state id="Two_4_6mths" />
			<state id="Three" />
			<parents>n2_Age_group</parents>
			<probabilities>0.05 0.05 0.2 0.2 0.2 0.3 0.05 0.05 0.2 0.2 0.2 0.3 0.05 0.05 0.2 0.2 0.2 0.3 0.05 0.05 0.2 0.2 0.2 0.3 0.05 0.05 0.2 0.2 0.2 0.3 0.05 0.05 0.2 0.2 0.2 0.3 0.05 0.05 0.2 0.2 0.2 0.3</probabilities>
		</cpt>
		<cpt id="n7_Vaccine_effectiveness_against_infection">
			<state id="Effective" />
			<state id="Ineffective" />
			<parents>Variant n1_Pfizer_dose</parents>
			<probabilities>0 1 0.361 0.639 0.88445 0.11555 0.7715 0.2285 0.65845 0.34155 0.9326 0.0674 0 1 0.342 0.6579999999999999 0.55855 0.44145 0.21645 0.78355 0.12 0.88 0.6402 0.3598 0 1 0.5 0.5 0.5 0.5 0.5 0.5 0.5 0.5 0.5 0.5</probabilities>
		</cpt>
		<cpt id="n9_Risk_of_infection_by_aget_and_sex">
			<state id="Yes" />
			<state id="No" />
			<parents>Variant n3_Sex n2_Age_group</parents>
			<probabilities>0.141270822 0.858729178 0.140712727 0.859287273 0.118254164 0.881745836 0.09839434 0.90160566 0.075530474 0.924469526 0.05143924 0.94856076 0.038959464 0.9610405359999999 0.134087259 0.865912741 0.128846737 0.871153263 0.11246359 0.8875364100000001 0.093767005 0.906232995 0.07151648400000001 0.928483516 0.049456957 0.950543043 0.041561051 0.958438949 0.101612381 0.898387619 0.21968419 0.7803158100000001 0.124921845 0.875078155 0.08661635400000001 0.913383646 0.075070796 0.924929204 0.0521786 0.9478214 0.033733684 0.966266316 0.115556311 0.884443689 0.228679408 0.771320592 0.124743877 0.875256123 0.09434218900000001 0.905657811 0.08184714999999999 0.91815285 0.051246919 0.948753081 0.033668035 0.966331965 0.1 0.9 0.1 0.9 0.1 0.9 0.1 0.9 0.1 0.9 0.1 0.9 0.1 0.9 0.1 0.9 0.1 0.9 0.1 0.9 0.1 0.9 0.1 0.9 0.1 0.9 0.1 0.9</probabilities>
		</cpt>
		<cpt id="n8_Vaccine_effectiveness_against_death">
			<state id="Effective" />
			<state id="Ineffective" />
			<parents>Variant n1_Pfizer_dose</parents>
			<probabilities>0 1 0.861 0.139 0.95 0.05000000000000004 0.95 0.05 0.874 0.126 0.981 0.019 0 1 0.667 0.333 0.736 0.264 0.736 0.264 0.504 0.496 0.883 0.117 0 1 0.5 0.5 0.5 0.5 0.5 0.5 0.5 0.5 0.5 0.5</probabilities>
		</cpt>
		<cpt id="n10_Risk_of_infection_under_current_transmission_and_vaccination_status">
			<state id="Yes" />
			<state id="No" />
			<parents>n9_Risk_of_infection_by_aget_and_sex n7_Vaccine_effectiveness_against_infection n4_Community_transmission</parents>
			<probabilities>0 1 0 1 0 1 0 1 0 1 0 1 0 1 0 1 0 1 0.001566667 0.998433333 0.0149 0.9851 0.191966667 0.808033333 0.1 0.9 0.2 0.8 0.5 0.5 1 0 0 1 0 1 0 1 0 1 0 1 0 1 0 1 0 1 0 1 0 1 0 1 0 1 0 1 0 1 0 1 0 1</probabilities>
		</cpt>
		<cpt id="n14_Die_from_COVID19">
			<state id="Yes" />
			<state id="No" />
			<parents>n10_Risk_of_infection_under_current_transmission_and_vaccination_status n8_Vaccine_effectiveness_against_death Variant n3_Sex n2_Age_group</parents>
			<probabilities>0 1 0 1 0 1 0 1 0 1 0 1 0 1 0 1 0 1 0 1 0 1 0 1 0 1 0 1 0 1 0 1 0 1 0 1 0 1 0 1 0 1 0 1 0 1 0 1 0 1 0 1 0 1 0 1 0 1 0 1 0 1 0 1 0 1 0 1 0 1 0 1 0 1 0 1 0 1 0 1 0 1 0 1 6.703309999329669e-05 0.9999329669000067 0.000299013 0.999700987 0.000692681 0.999307319 0.002280687 0.9977193130000001 0.007565932 0.992434068 0.025723473 0.974276527 0.155959676 0.844040324 7.088180001417637e-05 0.9999291181999858 0.000159957 0.999840043 0.000434675 0.9995653249999999 0.001047852 0.998952148 0.004413262 0.995586738 0.010790698 0.989209302 0.12996889 0.87003111 0 1 1.9611e-05 0.999980389 7.299799999999999e-05 0.999927002 0.000131348 0.999868652 0.000342652 0.9996573479999999 0.001114571 0.998885429 0.015086795 0.984913205 0 1 0 1 0 1 5.987839997604864e-05 0.999940121600024 0.000296252 0.9997037479999999 0.001168927 0.998831073 0.010927958 0.989072042 0.5 0.5 0.5 0.5 0.5 0.5 0.5 0.5 0.5 0.5 0.5 0.5 0.5 0.5 0.5 0.5 0.5 0.5 0.5 0.5 0.5 0.5 0.5 0.5 0.5 0.5 0.5 0.5 0 1 0 1 0 1 0 1 0 1 0 1 0 1 0 1 0 1 0 1 0 1 0 1 0 1 0 1 0 1 0 1 0 1 0 1 0 1 0 1 0 1 0 1 0 1 0 1 0 1 0 1 0 1 0 1 0 1 0 1 0 1 0 1 0 1 0 1 0 1 0 1 0 1 0 1 0 1 0 1 0 1 0 1 0 1 0 1 0 1 0 1 0 1 0 1 0 1 0 1 0 1 0 1 0 1 0 1 0 1 0 1 0 1 0 1 0 1 0 1 0 1 0 1 0 1 0 1 0 1 0 1 0 1 0 1 0 1 0 1 0 1 0 1 0 1 0 1 0 1 0 1 0 1 0 1 0 1 0 1 0 1 0 1 0 1 0 1</probabilities>
		</cpt>
		<cpt id="n6_Myocarditis_background">
			<state id="Yes" />
			<state id="No" />
			<parents>n3_Sex n2_Age_group</parents>
			<probabilities>1.896e-05 0.999981042 4.008e-05 0.999959917 4.008e-05 0.999959917 4.008e-05 0.999959917 4.442e-05 0.999955583 5.092e-05 0.999949083 5.392e-05 0.999946076 1.002e-05 0.999989979 1.733e-05 0.999982667 2.058e-05 0.999979417 2.383e-05 0.999976167 2.871e-05 0.999971292 3.575e-05 0.99996425 3.964e-05 0.999960357</probabilities>
		</cpt>
		<cpt id="n5_Vaccine_associated_myocarditis">
			<state id="Yes" />
			<state id="No" />
			<parents>n1_Pfizer_dose n3_Sex n2_Age_group</parents>
			<probabilities>0 1 0 1 0 1 0 1 0 1 0 1 0 1 0 1 0 1 0 1 0 1 0 1 0 1 0 1 2.375e-05 0.99997625 1.7e-05 0.999983 1.7e-05 0.999983 5e-06 0.999995 7e-06 0.999993 4e-06 0.999996 0 1 5.5e-06 0.9999945 7e-06 0.999993 8e-06 0.999992 5e-06 0.999995 2e-06 0.9999980000000001 6e-06 0.999994 4e-06 0.999996 0.00010325 0.99989675 5.9e-05 0.999941 1.5e-05 0.999985 1.1e-05 0.999989 1e-06 0.999999 0 1 0 1 2.5e-05 0.9999749999999999 1.9e-05 0.999981 6e-06 0.999994 9e-06 0.999991 4e-06 0.999996 0 1 0 1 0.00010325 0.99989675 5.9e-05 0.999941 1.5e-05 0.999985 1.1e-05 0.999989 1e-06 0.999999 0 1 0 1 2.5e-05 0.9999749999999999 1.9e-05 0.999981 6e-06 0.999994 9e-06 0.999991 4e-06 0.999996 0 1 0 1 0.00010325 0.99989675 5.9e-05 0.999941 1.5e-05 0.999985 1.1e-05 0.999989 1e-06 0.999999 0 1 0 1 2.5e-05 0.9999749999999999 1.9e-05 0.999981 6e-06 0.999994 9e-06 0.999991 4e-06 0.999996 0 1 0 1 0.00010325 0.99989675 5.9e-05 0.999941 1.5e-05 0.999985 1.1e-05 0.999989 1e-06 0.999999 0 1 0 1 2.5e-05 0.9999749999999999 1.9e-05 0.999981 6e-06 0.999994 9e-06 0.999991 4e-06 0.999996 0 1 0 1</probabilities>
		</cpt>
		<cpt id="n12_Die_from_Pfizer_myocarditis">
			<state id="Yes" />
			<state id="No" />
			<parents>n5_Vaccine_associated_myocarditis</parents>
			<probabilities>0.00167364 0.99832636 0 1</probabilities>
		</cpt>
		<cpt id="n13_Die_from_background_myocarditis">
			<state id="Yes" />
			<state id="No" />
			<parents>n6_Myocarditis_background n3_Sex n2_Age_group</parents>
			<probabilities>0.0134066 0.98659341 0.0120582 0.98794179 0.022869 0.97713098 0.0330561 0.96694387 0.0257036 0.97429644 0.0247136 0.97528642 0.0299836 0.97001639 0.0245322 0.97546778 0.0173077 0.98269231 0.0214575 0.97854251 0.0304196 0.96958042 0.030479 0.9695210399999999 0.0291375 0.97086247 0.0427022 0.95729776 0 1 0 1 0 1 0 1 0 1 0 1 0 1 0 1 0 1 0 1 0 1 0 1 0 1 0 1</probabilities>
		</cpt>
		<cpt id="n11_Myocarditis_from_COVID19">
			<state id="Yes" />
			<state id="No" />
			<parents>n10_Risk_of_infection_under_current_transmission_and_vaccination_status n3_Sex n2_Age_group</parents>
			<probabilities>0.137432188 0.862567812 0.020813653 0.979186347 0.023443039 0.976556961 0.024874318 0.975125682 0.024129155 0.975870845 0.022218383 0.977781617 0.019779922 0.980220078 0.01659751 0.98340249 0.024281303 0.975718697 0.02401673 0.97598327 0.025891257 0.9741087430000001 0.023955586 0.976044414 0.022354078 0.977645922 0.019411765 0.980588235 0 1 0 1 0 1 0 1 0 1 0 1 0 1 0 1 0 1 0 1 0 1 0 1 0 1 0 1</probabilities>
		</cpt>
		<cpt id="n15_Die_from_COVID19_myocarditis">
			<state id="Yes" />
			<state id="No" />
			<parents>n11_Myocarditis_from_COVID19 n3_Sex n2_Age_group</parents>
			<probabilities>0.01 0.99 0.01 0.99 0.01 0.99 0.017241379 0.982758621 0.035426731 0.964573269 0.07387247299999999 0.926127527 0.151445967 0.848554033 0.01 0.99 0.01 0.99 0.01 0.99 0.01 0.99 0.013990268 0.986009732 0.040466392 0.959533608 0.126033058 0.873966942 0 1 0 1 0 1 0 1 0 1 0 1 0 1 0 1 0 1 0 1 0 1 0 1 0 1 0 1</probabilities>
		</cpt>
	</nodes>
	<extensions>
		<genie version="1.0" app="GeNIe 3.0.6518.0 ACADEMIC" name="Network1" arccolor="000000">
			<node id="n9_Risk_of_infection_by_aget_and_sex">
				<name>Relative risk of symptomatic infection by age and sex (n9)</name>
				<interior color="ffff99" />
				<outline color="000000" />
				<font color="000000" name="Arial" size="8" />
				<position>1090 100 1228 172</position>
				<barchart width="203" height="74" />
			</node>
			<node id="n14_Die_from_COVID19">
				<name>Die from COVID-19 (n14)</name>
				<interior color="e4caff" />
				<outline color="000000" />
				<font color="000000" name="Arial" size="8" />
				<position>586 478 642 513</position>
				<barchart active="true" width="146" height="71" />
			</node>
			<node id="n3_Sex">
				<name>Sex (n3)</name>
				<interior color="ffcc99" />
				<outline color="000000" />
				<font color="000000" name="Arial" size="8" />
				<position>565 18 617 50</position>
				<barchart active="true" width="124" height="54" />
			</node>
			<node id="n7_Vaccine_effectiveness_against_infection">
				<name>Vaccine effectiveness against symptomatic infection (n7)</name>
				<interior color="ffff99" />
				<outline color="000000" />
				<font color="000000" name="Arial" size="8" />
				<position>789 153 845 188</position>
				<barchart active="true" width="143" height="85" />
			</node>
			<node id="n8_Vaccine_effectiveness_against_death">
				<name>Vaccine effectiveness against death (n8)</name>
				<interior color="ffff99" />
				<outline color="000000" />
				<font color="000000" name="Arial" size="8" />
				<position>919 266 975 301</position>
				<barchart active="true" width="144" height="76" />
			</node>
			<node id="n4_Community_transmission">
				<name>Community transmission at x% over 2 months (n4)</name>
				<interior color="ffcc99" />
				<outline color="000000" />
				<font color="000000" name="Arial" size="8" />
				<position>1305 90 1353 120</position>
				<barchart active="true" width="175" height="178" />
			</node>
			<node id="n10_Risk_of_infection_under_current_transmission_and_vaccination_status">
				<name>Risk of symptomatic infection under current transmission and vaccination status (n10)</name>
				<interior color="e4caff" />
				<outline color="000000" />
				<font color="000000" name="Arial" size="8" />
				<position>1072 242 1225 325</position>
				<barchart active="true" width="166" height="89" />
			</node>
			<node id="n2_Age_group">
				<name>Age group (n2)</name>
				<interior color="ffcc99" />
				<outline color="000000" />
				<font color="000000" name="Arial" size="8" />
				<position>285 66 337 98</position>
				<barchart active="true" width="138" height="165" />
			</node>
			<node id="n1_Pfizer_dose">
				<name>Pfizer vaccine dose &amp; time since dose 2 (n1)</name>
				<interior color="ffcc99" />
				<outline color="000000" />
				<font color="000000" name="Arial" size="8" />
				<position>73 172 129 207</position>
				<barchart active="true" width="182" height="145" />
			</node>
			<node id="n6_Myocarditis_background">
				<name>Background myocarditis over 2 months (n6)</name>
				<interior color="ffff99" />
				<outline color="000000" />
				<font color="000000" name="Arial" size="8" />
				<position>280 375 336 410</position>
				<barchart active="true" width="163" height="68" />
			</node>
			<node id="n12_Die_from_Pfizer_myocarditis">
				<name>Die from vaccine-associated myocarditis (n12)</name>
				<interior color="e4caff" />
				<outline color="000000" />
				<font color="000000" name="Arial" size="8" />
				<position>88 478 144 513</position>
				<barchart active="true" width="175" height="70" />
			</node>
			<textbox>
				<caption>V1: Dying from myocarditis vs Covid in 2 months</caption>
				<font color="ff0000" name="Arial" size="16" />
				<position>15 18 210 90</position>
			</textbox>
			<node id="n5_Vaccine_associated_myocarditis">
				<name>Vaccine-associated myocarditis (n5)</name>
				<interior color="ffff99" />
				<outline color="000000" />
				<font color="000000" name="Arial" size="8" />
				<position>91 374 147 409</position>
				<barchart active="true" width="162" height="68" />
			</node>
			<node id="n13_Die_from_background_myocarditis">
				<name>Die from myocarditis (background) (n13)</name>
				<interior color="e4caff" />
				<outline color="000000" />
				<font color="000000" name="Arial" size="8" />
				<position>411 476 467 511</position>
				<barchart active="true" width="160" height="69" />
			</node>
			<node id="n11_Myocarditis_from_COVID19">
				<name>Myocarditis from COVID-19 (n11)</name>
				<interior color="ffff99" />
				<outline color="000000" />
				<font color="000000" name="Arial" size="8" />
				<position>916 419 972 454</position>
				<barchart active="true" width="138" height="68" />
			</node>
			<node id="n15_Die_from_COVID19_myocarditis">
				<name>Die from COVID-19-related myocarditis (n15)</name>
				<interior color="e4caff" />
				<outline color="000000" />
				<font color="000000" name="Arial" size="8" />
				<position>792 515 848 550</position>
				<barchart active="true" width="166" height="74" />
			</node>
			<textbox>
				<caption>Risk of infection \nover 2 months</caption>
				<font color="000000" name="Arial" size="8" bold="true" align="center" />
				<position>1126 67 1218 95</position>
			</textbox>
			<node id="Variant">
				<name>Variant</name>
				<interior color="ffcc99" />
				<outline color="000080" />
				<font color="000000" name="Arial" size="8" />
				<position>1014 47 1065 78</position>
				<barchart active="true" width="99" height="72" />
			</node>
			<arcformat parent="n2_Age_group" child="n1_Pfizer_dose" width="1" color="a0a0a0" />
			<arcformat parent="n1_Pfizer_dose" child="n7_Vaccine_effectiveness_against_infection" width="1" color="000000" />
			<arcformat parent="n2_Age_group" child="n9_Risk_of_infection_by_aget_and_sex" width="1" color="000000" />
			<arcformat parent="n1_Pfizer_dose" child="n8_Vaccine_effectiveness_against_death" width="1" color="000000" />
			<arcformat parent="n9_Risk_of_infection_by_aget_and_sex" child="n10_Risk_of_infection_under_current_transmission_and_vaccination_status" width="1" color="000000" />
			<arcformat parent="n7_Vaccine_effectiveness_against_infection" child="n10_Risk_of_infection_under_current_transmission_and_vaccination_status" width="1" color="000000" />
			<arcformat parent="n4_Community_transmission" child="n10_Risk_of_infection_under_current_transmission_and_vaccination_status" width="1" color="000000" />
			<arcformat parent="n10_Risk_of_infection_under_current_transmission_and_vaccination_status" child="n14_Die_from_COVID19" width="1" color="000000" />
			<arcformat parent="n8_Vaccine_effectiveness_against_death" child="n14_Die_from_COVID19" width="1" color="000000" />
			<arcformat parent="n3_Sex" child="n14_Die_from_COVID19" width="1" color="000000" />
			<arcformat parent="n2_Age_group" child="n14_Die_from_COVID19" width="1" color="000000" />
			<arcformat parent="n3_Sex" child="n6_Myocarditis_background" width="1" color="a0a0a0" />
			<arcformat parent="n2_Age_group" child="n6_Myocarditis_background" width="1" color="000000" />
			<arcformat parent="n1_Pfizer_dose" child="n5_Vaccine_associated_myocarditis" width="1" color="000000" />
			<arcformat parent="n3_Sex" child="n5_Vaccine_associated_myocarditis" width="1" color="a0a0a0" />
			<arcformat parent="n2_Age_group" child="n5_Vaccine_associated_myocarditis" width="1" color="000000" />
			<arcformat parent="n5_Vaccine_associated_myocarditis" child="n12_Die_from_Pfizer_myocarditis" width="1" color="000000" />
			<arcformat parent="n10_Risk_of_infection_under_current_transmission_and_vaccination_status" child="n11_Myocarditis_from_COVID19" width="1" color="000000" />
			<arcformat parent="n11_Myocarditis_from_COVID19" child="n15_Die_from_COVID19_myocarditis" width="1" color="000000" />
		</genie>
	</extensions>
</smile>
