<?xml version="1.0" encoding="UTF-8"?>
<!-- This network was created in GeNIe Academic, which can be used for academic teaching and research purposes only -->
<smile version="1.0" id="Network1" numsamples="10000" discsamples="10000">
	<nodes>
		<cpt id="n5_Sex">
			<state id="Male" />
			<state id="Female" />
			<probabilities>0.490348772 0.509651228</probabilities>
		</cpt>
		<cpt id="n4_Age">
			<state id="age_18_60" />
			<state id="age_61_70" />
			<state id="age_71plus" />
			<parents>n5_Sex</parents>
			<probabilities>0.737103307 0.1312225 0.131674193 0.717156632 0.134522432 0.148320936</probabilities>
		</cpt>
		<cpt id="n2_Dose">
			<state id="None" />
			<state id="First_3weeks_ago" />
			<state id="Second_2wks_5mnths" />
			<state id="Second_6_11mnths" />
			<state id="Second_12plus_mnths" />
			<state id="Third_2wks_5mths" />
			<state id="Third_6_11mnths" />
			<state id="Third_12plus_mnths" />
			<state id="Fourth_upto3mnths" />
			<state id="Fourth_3_6mnths" />
			<state id="Fourth_6plus_mnths" />
			<probabilities>0.021209 0.029438231 0.029438231 0.16632 0.16632 0.029438231 0.16632 0.16632 0.029438231 0.029438231 0.16632</probabilities>
		</cpt>
		<cpt id="n10_Vax_vs_death">
			<state id="Effective" />
			<state id="Not_effective" />
			<parents>n2_Dose</parents>
			<probabilities>0 1 0 1 0.630567 0.369433 0.479 0.521 0.497 0.503 0.7944 0.2056 0.623789474 0.376210526 0.569 0.431 0.7729 0.2271 0.6870000000000001 0.313 0.6820000000000001 0.318</probabilities>
		</cpt>
		<cpt id="n1_Infection">
			<state id="Yes" />
			<state id="No" />
			<probabilities>1 0</probabilities>
		</cpt>
		<cpt id="n8_NoOfPrevInfect">
			<state id="None" />
			<state id="One" />
			<state id="Two_plus" />
			<probabilities>0.946581011 0.050404362 0.003014627</probabilities>
		</cpt>
		<cpt id="n9_Vax_vs_hospICU">
			<state id="Effective" />
			<state id="Not_effective" />
			<parents>n2_Dose</parents>
			<probabilities>0 1 0 1 0.712402985 0.287597015 0.544 0.456 0.355 0.645 0.695029851 0.304970149 0.5235 0.4765 0.523 0.477 0.7749295 0.2250705 0.6273865 0.3726135 0.582808 0.417192</probabilities>
		</cpt>
		<cpt id="n7_Drug">
			<state id="None" />
			<state id="Molnupiravir" />
			<state id="Metformin_within7days" />
			<state id="Metformin_within3days" />
			<state id="Nirmatrelvir_paxlovid" />
			<probabilities>0.2 0.2 0.2 0.2 0.2</probabilities>
		</cpt>
		<cpt id="n11_Hospitalisation">
			<state id="Yes" />
			<state id="No" />
			<parents>n1_Infection n9_Vax_vs_hospICU n4_Age n8_NoOfPrevInfect n7_Drug</parents>
			<probabilities>0 1 0 1 0 1 0 1 0 1 0 1 0 1 0 1 0 1 0 1 0 1 0 1 0 1 0 1 0 1 0 1 0 1 0 1 0 1 0 1 0 1 0 1 0 1 0 1 0 1 0 1 0 1 0 1 0 1 0 1 0 1 0 1 0 1 0 1 0 1 0 1 0 1 0 1 0 1 0 1 0 1 0 1 0 1 0 1 0 1 0.005821655 0.994178345 0.005006623 0.994993377 0.002445095 0.997554905 0.002445095 0.997554905 0.004424458 0.995575542 0.018396429 0.981603571 0.015820929 0.984179071 0.0077265 0.9922735 0.0077265 0.9922735 0.013981286 0.986018714 0.031669802 0.968330198 0.027236029 0.972763971 0.013301317 0.986698683 0.013301317 0.986698683 0.024069049 0.975930951 0.021739866 0.978260134 0.018696285 0.981303715 0.009130744 0.990869256 0.009130744 0.990869256 0.016522298 0.983477702 0.06869797800000001 0.931302022 0.059080261 0.940919739 0.028853151 0.971146849 0.028853151 0.971146849 0.052210463 0.947789537 0.118264873 0.881735127 0.101707791 0.898292209 0.049671247 0.950328753 0.049671247 0.950328753 0.089881303 0.910118697 0.083953551 0.916046449 0.072200054 0.927799946 0.035260491 0.9647395090000001 0.035260491 0.9647395090000001 0.06380469900000001 0.936195301 0.265293222 0.7347067779999999 0.228152171 0.771847829 0.111423153 0.8885768469999999 0.111423153 0.8885768469999999 0.201622848 0.798377152 0.456707318 0.543292682 0.392768294 0.607231706 0.191817074 0.808182926 0.191817074 0.808182926 0.347097562 0.652902438 0 1 0 1 0 1 0 1 0 1 0 1 0 1 0 1 0 1 0 1 0 1 0 1 0 1 0 1 0 1 0 1 0 1 0 1 0 1 0 1 0 1 0 1 0 1 0 1 0 1 0 1 0 1 0 1 0 1 0 1 0 1 0 1 0 1 0 1 0 1 0 1 0 1 0 1 0 1 0 1 0 1 0 1 0 1 0 1 0 1 0 1 0 1 0 1 0 1 0 1 0 1 0 1 0 1 0 1 0 1 0 1 0 1 0 1 0 1 0 1 0 1 0 1 0 1 0 1 0 1 0 1 0 1 0 1 0 1 0 1 0 1 0 1 0 1 0 1 0 1 0 1 0 1 0 1 0 1 0 1 0 1 0 1 0 1 0 1 0 1 0 1 0 1 0 1 0 1 0 1</probabilities>
		</cpt>
		<cpt id="n12_ICU">
			<state id="Yes" />
			<state id="No" />
			<parents>n1_Infection n9_Vax_vs_hospICU n11_Hospitalisation n4_Age n8_NoOfPrevInfect n7_Drug</parents>
			<probabilities>0 1 0 1 0 1 0 1 0 1 0 1 0 1 0 1 0 1 0 1 0 1 0 1 0 1 0 1 0 1 0 1 0 1 0 1 0 1 0 1 0 1 0 1 0 1 0 1 0 1 0 1 0 1 0 1 0 1 0 1 0 1 0 1 0 1 0 1 0 1 0 1 0 1 0 1 0 1 0 1 0 1 0 1 0 1 0 1 0 1 0 1 0 1 0 1 0 1 0 1 0 1 0 1 0 1 0 1 0 1 0 1 0 1 0 1 0 1 0 1 0 1 0 1 0 1 0 1 0 1 0 1 0 1 0 1 0 1 0 1 0 1 0 1 0 1 0 1 0 1 0 1 0 1 0 1 0 1 0 1 0 1 0 1 0 1 0 1 0 1 0 1 0 1 0 1 0 1 0 1 0.000617075 0.999382925 0.000530684 0.999469316 0.000259171 0.9997408290000001 0.000259171 0.9997408290000001 0.000468977 0.999531023 0.001949956 0.998050044 0.001676962 0.998323038 0.000818982 0.999181018 0.000818982 0.999181018 0.001481967 0.998518033 0.003356887 0.996643113 0.002886923 0.997113077 0.001409893 0.9985901069999999 0.001409893 0.9985901069999999 0.002551234 0.997448766 0.003726068 0.996273932 0.003204418 0.996795582 0.001564948 0.998435052 0.001564948 0.998435052 0.002831812 0.997168188 0.011774374 0.988225626 0.010125962 0.989874038 0.004945237 0.995054763 0.004945237 0.995054763 0.008948523999999999 0.991051476 0.020269809 0.979730191 0.017432036 0.982567964 0.00851332 0.99148668 0.00851332 0.99148668 0.015405055 0.984594945 0.008063884 0.991936116 0.00693494 0.9930650600000001 0.003386831 0.996613169 0.003386831 0.996613169 0.006128552 0.993871448 0.025481873 0.974518127 0.021914411 0.978085589 0.010702387 0.989297613 0.010702387 0.989297613 0.019366223 0.980633777 0.043867528 0.956132472 0.037726074 0.9622739259999999 0.018424362 0.981575638 0.018424362 0.981575638 0.033339321 0.966660679 0 1 0 1 0 1 0 1 0 1 0 1 0 1 0 1 0 1 0 1 0 1 0 1 0 1 0 1 0 1 0 1 0 1 0 1 0 1 0 1 0 1 0 1 0 1 0 1 0 1 0 1 0 1 0 1 0 1 0 1 0 1 0 1 0 1 0 1 0 1 0 1 0 1 0 1 0 1 0 1 0 1 0 1 0 1 0 1 0 1 0 1 0 1 0 1 0 1 0 1 0 1 0 1 0 1 0 1 0 1 0 1 0 1 0 1 0 1 0 1 0 1 0 1 0 1 0 1 0 1 0 1 0 1 0 1 0 1 0 1 0 1 0 1 0 1 0 1 0 1 0 1 0 1 0 1 0 1 0 1 0 1 0 1 0 1 0 1 0 1 0 1 0 1 0 1 0 1 0 1 0 1 0 1 0 1 0 1 0 1 0 1 0 1 0 1 0 1 0 1 0 1 0 1 0 1 0 1 0 1 0 1 0 1 0 1 0 1 0 1 0 1 0 1 0 1 0 1 0 1 0 1 0 1 0 1 0 1 0 1 0 1 0 1 0 1 0 1 0 1 0 1 0 1 0 1 0 1 0 1 0 1 0 1 0 1 0 1 0 1 0 1 0 1 0 1 0 1 0 1 0 1 0 1 0 1 0 1 0 1 0 1 0 1 0 1 0 1 0 1 0 1 0 1 0 1 0 1 0 1 0 1 0 1 0 1 0 1 0 1 0 1 0 1 0 1 0 1 0 1 0 1 0 1 0 1 0 1 0 1 0 1 0 1 0 1 0 1 0 1 0 1 0 1 0 1 0 1 0 1 0 1 0 1 0 1 0 1 0 1 0 1 0 1 0 1 0 1 0 1 0 1 0 1 0 1 0 1 0 1 0 1 0 1 0 1 0 1 0 1 0 1 0 1 0 1 0 1 0 1 0 1 0 1 0 1 0 1 0 1 0 1 0 1 0 1 0 1 0 1 0 1 0 1 0 1 0 1 0 1 0 1 0 1 0 1 0 1 0 1</probabilities>
		</cpt>
		<cpt id="n13_Death">
			<state id="Yes" />
			<state id="No" />
			<parents>n1_Infection n10_Vax_vs_death n4_Age n8_NoOfPrevInfect n7_Drug</parents>
			<probabilities>0 1 0 1 0 1 0 1 0 1 0 1 0 1 0 1 0 1 0 1 0 1 0 1 0 1 0 1 0 1 0 1 0 1 0 1 0 1 0 1 0 1 0 1 0 1 0 1 0 1 0 1 0 1 0 1 0 1 0 1 0 1 0 1 0 1 0 1 0 1 0 1 0 1 0 1 0 1 0 1 0 1 0 1 0 1 0 1 0 1 0.0001622 0.9998378 0.000100564 0.999899436 7.62341e-05 0.999923766 7.62341e-05 0.999923766 8.59661e-05 0.999914034 0.000351975 0.9996480250000001 0.000218224 0.999781776 0.000165428 0.999834572 0.000165428 0.999834572 0.000186547 0.999813453 0.000351975 0.9996480250000001 0.000218224 0.999781776 0.000165428 0.999834572 0.000165428 0.999834572 0.000186547 0.999813453 0.0030686 0.9969314 0.001902532 0.998097468 0.001442242 0.998557758 0.001442242 0.998557758 0.001626358 0.998373642 0.006658862 0.993341138 0.004128495 0.995871505 0.003129665 0.996870335 0.003129665 0.996870335 0.003529197 0.996470803 0.006658862 0.993341138 0.004128495 0.995871505 0.003129665 0.996870335 0.003129665 0.996870335 0.003529197 0.996470803 0.034851135 0.965148865 0.021607704 0.978392296 0.016380034 0.983619966 0.016380034 0.983619966 0.018471102 0.981528898 0.075626964 0.924373036 0.046888718 0.9531112819999999 0.035544673 0.964455327 0.035544673 0.964455327 0.040082291 0.959917709 0.075626964 0.924373036 0.046888718 0.9531112819999999 0.035544673 0.964455327 0.035544673 0.964455327 0.040082291 0.959917709 0 1 0 1 0 1 0 1 0 1 0 1 0 1 0 1 0 1 0 1 0 1 0 1 0 1 0 1 0 1 0 1 0 1 0 1 0 1 0 1 0 1 0 1 0 1 0 1 0 1 0 1 0 1 0 1 0 1 0 1 0 1 0 1 0 1 0 1 0 1 0 1 0 1 0 1 0 1 0 1 0 1 0 1 0 1 0 1 0 1 0 1 0 1 0 1 0 1 0 1 0 1 0 1 0 1 0 1 0 1 0 1 0 1 0 1 0 1 0 1 0 1 0 1 0 1 0 1 0 1 0 1 0 1 0 1 0 1 0 1 0 1 0 1 0 1 0 1 0 1 0 1 0 1 0 1 0 1 0 1 0 1 0 1 0 1 0 1 0 1 0 1 0 1 0 1 0 1 0 1</probabilities>
		</cpt>
		<cpt id="n6_ComorbidityNo">
			<state id="None" />
			<state id="One_to_three" />
			<state id="Four_plus" />
			<parents>n4_Age n5_Sex</parents>
			<probabilities>0.554142857 0.415690476 0.030166667 0.515666667 0.444690476 0.039642857 0.2485 0.6879999999999999 0.0635 0.23 0.6850000000000001 0.08500000000000001 0.136 0.7175 0.1465 0.135 0.7225 0.1425</probabilities>
		</cpt>
		<cpt id="n3_Vaxstat">
			<state id="Unvaccinated" />
			<state id="Vaccinated" />
			<parents>n2_Dose</parents>
			<probabilities>1 0 1 0 0 1 0 1 0 1 0 1 0 1 0 1 0 1 0 1 0 1</probabilities>
		</cpt>
		<cpt id="n19_LC_fatigue">
			<state id="Yes" />
			<state id="No" />
			<parents>n1_Infection n3_Vaxstat n8_NoOfPrevInfect n11_Hospitalisation n12_ICU n4_Age n5_Sex n6_ComorbidityNo n7_Drug</parents>
			<probabilities>0.01364511 0.98635489 0.01173479 0.98826521 0.00805061 0.99194939 0.00504869 0.99495131 0.01009738 0.98990262 0.02325715 0.9767428500000001 0.02000114 0.97999886 0.01372172 0.98627828 0.008605140000000001 0.99139486 0.01721029 0.98278971 0.02869437 0.97130563 0.0246772 0.97532284 0.0169297 0.9830703200000001 0.0106169 0.98938308 0.0212338 0.97876617 0.00666308 0.99333692 0.0057303 0.99426975 0.0039312 0.99606878 0.0024653 0.99753466 0.0049307 0.99506932 0.01135676 0.98864324 0.009766800000000001 0.99023318 0.0067005 0.9932995100000001 0.004202 0.995798 0.008404 0.99159599 0.01401183 0.9859881700000001 0.0120502 0.98794983 0.008267 0.99173302 0.0051844 0.99481562 0.0103688 0.98963125 0.02599668 0.97400332 0.0223571 0.97764286 0.015338 0.9846619599999999 0.0096188 0.99038123 0.0192375 0.98076246 0.04430955 0.95569045 0.0381062 0.96189379 0.0261426 0.9738573700000001 0.0163945 0.98360547 0.0327891 0.96721093 0.05466856 0.94533144 0.047015 0.9529850399999999 0.0322544 0.96774555 0.0202274 0.97977263 0.0404547 0.95954527 0.01269451 0.98730549 0.0109173 0.98908272 0.0074898 0.99251024 0.004697 0.99530303 0.0093939 0.99060606 0.02163692 0.9783630800000001 0.0186078 0.98139225 0.0127658 0.98723421 0.008005699999999999 0.99199434 0.0160113 0.9839886799999999 0.02669536 0.9733046400000001 0.022958 0.97704199 0.0157503 0.98424974 0.0098773 0.99012272 0.0197546 0.98024543 0.03359505 0.96640495 0.0288917 0.9711082599999999 0.0198211 0.98017892 0.0124302 0.98756983 0.0248603 0.97513967 0.05726044 0.94273956 0.049244 0.95075602 0.0337837 0.96621634 0.0211864 0.97881364 0.0423727 0.95762727 0.07064719999999999 0.9293528 0.0607566 0.9392434 0.0416819 0.95831815 0.0261395 0.9738605299999999 0.0522789 0.9477210700000001 0.01640489 0.98359511 0.0141082 0.98589179 0.009678900000000001 0.99032111 0.0060698 0.99393019 0.0121396 0.98786038 0.02796101 0.97203899 0.0240465 0.97595353 0.016497 0.983503 0.0103456 0.98965443 0.0206911 0.97930885 0.03449794 0.9655020600000001 0.0296682 0.97033177 0.0203538 0.97964621 0.0127642 0.98723576 0.0255285 0.97447152 0.00702642 0.99297358 0.0060427 0.9939572800000001 0.0041456 0.99585441 0.0025998 0.99740023 0.0051995 0.9948004499999999 0.01201707 0.98798293 0.0103347 0.98966532 0.0070901 0.9929099300000001 0.0044463 0.99555368 0.008892600000000001 0.99110737 0.02140335 0.97859665 0.0184069 0.98159312 0.012628 0.98737202 0.0079192 0.99208076 0.0158385 0.98416152 0.00406817 0.99593183 0.0034986 0.9965013700000001 0.0024002 0.99759978 0.0015052 0.99849478 0.0030104 0.99698955 0.00695768 0.99304232 0.0059836 0.9940164 0.004105 0.99589497 0.0025743 0.99742566 0.0051487 0.99485132 0.01239217 0.98760783 0.0106573 0.9893427299999999 0.0073114 0.99268862 0.0045851 0.9954149 0.0091702 0.99082979 0.01795862 0.98204138 0.0154444 0.98455559 0.0105956 0.98940441 0.0066447 0.99335531 0.0132894 0.98671062 0.0307141 0.9692859 0.0264141 0.97358588 0.0181213 0.98187868 0.0113642 0.98863578 0.0227284 0.97727157 0.05470423 0.94529577 0.0470456 0.95295436 0.0322755 0.96772451 0.0202406 0.97975944 0.0404811 0.95951887 0.01039773 0.98960227 0.008942 0.99105795 0.0061347 0.99386534 0.0038472 0.99615284 0.0076943 0.99230568 0.01778293 0.98221707 0.0152933 0.9847066799999999 0.0104919 0.98950807 0.0065797 0.99342032 0.0131594 0.98684063 0.0316728 0.9683272000000001 0.0272386 0.9727613899999999 0.018687 0.98131305 0.0117189 0.98828106 0.0234379 0.97656213 0.03334673 0.96665327 0.0286782 0.97132182 0.0196746 0.9803254300000001 0.0123383 0.98766171 0.0246766 0.9753234200000001 0.05703191 0.94296809 0.0490474 0.95095255 0.0336488 0.96635117 0.0211018 0.97889819 0.0422036 0.95779638 0.10157833 0.89842167 0.0873574 0.9126426399999999 0.0599312 0.94006878 0.037584 0.96241602 0.075168 0.92483203 0.01930718 0.98069282 0.0166042 0.98339583 0.0113912 0.98860876 0.0071437 0.99285634 0.0142873 0.9857126899999999 0.03302049 0.96697951 0.0283976 0.97160238 0.0194821 0.98051791 0.0122176 0.98778242 0.0244352 0.97556483 0.0588121 0.9411879 0.0505784 0.94942159 0.0346991 0.96530086 0.0217605 0.97823952 0.043521 0.95647905 0.01364511 0.98635489 0.0117348 0.98826521 0.0080506 0.99194939 0.0050487 0.99495131 0.0100974 0.98990262 0.02325715 0.9767428500000001 0.0200011 0.97999886 0.0137217 0.98627828 0.008605099999999999 0.99139486 0.0172103 0.98278971 0.02869437 0.97130563 0.0246772 0.97532284 0.0169297 0.9830703200000001 0.0106169 0.98938308 0.0212338 0.97876617 0.00666308 0.99333692 0.0057303 0.99426975 0.0039312 0.99606878 0.0024653 0.99753466 0.0049307 0.99506932 0.01135676 0.98864324 0.009766800000000001 0.99023318 0.0067005 0.9932995100000001 0.004202 0.995798 0.008404 0.99159599 0.01401183 0.9859881700000001 0.0120502 0.98794983 0.008267 0.99173302 0.0051844 0.99481562 0.0103688 0.98963125 0.02599668 0.97400332 0.0223571 0.97764286 0.015338 0.9846619599999999 0.0096188 0.99038123 0.0192375 0.98076246 0.04430955 0.95569045 0.0381062 0.96189379 0.0261426 0.9738573700000001 0.0163945 0.98360547 0.0327891 0.96721093 0.05466856 0.94533144 0.047015 0.9529850399999999 0.0322544 0.96774555 0.0202274 0.97977263 0.0404547 0.95954527 0.01269451 0.98730549 0.0109173 0.98908272 0.0074898 0.99251024 0.004697 0.99530303 0.0093939 0.99060606 0.02163692 0.9783630800000001 0.0186078 0.98139225 0.0127658 0.98723421 0.008005699999999999 0.99199434 0.0160113 0.9839886799999999 0.02669536 0.9733046400000001 0.022958 0.97704199 0.0157503 0.98424974 0.0098773 0.99012272 0.0197546 0.98024543 0.03359505 0.96640495 0.0288917 0.9711082599999999 0.0198211 0.98017892 0.0124302 0.98756983 0.0248603 0.97513967 0.05726044 0.94273956 0.049244 0.95075602 0.0337837 0.96621634 0.0211864 0.97881364 0.0423727 0.95762727 0.07064719999999999 0.9293528 0.0607566 0.9392434 0.0416819 0.95831815 0.0261395 0.9738605299999999 0.0522789 0.9477210700000001 0.01640489 0.98359511 0.0141082 0.98589179 0.009678900000000001 0.99032111 0.0060698 0.99393019 0.0121396 0.98786038 0.02796101 0.97203899 0.0240465 0.97595353 0.016497 0.983503 0.0103456 0.98965443 0.0206911 0.97930885 0.03449794 0.9655020600000001 0.0296682 0.97033177 0.0203538 0.97964621 0.0127642 0.98723576 0.0255285 0.97447152 0.01171832 0.9882816800000001 0.0100778 0.98992225 0.0069138 0.99308619 0.0043358 0.99566422 0.0086716 0.99132844 0.0170902 0.9829097999999999 0.0146976 0.98530242 0.0100832 0.9899167800000001 0.0063234 0.99367662 0.0126468 0.98735325 0.02343664 0.97656336 0.0201555 0.97984449 0.0138276 0.98617238 0.0086716 0.99132844 0.0173431 0.98265689 0.00801703 0.99198297 0.0068946 0.99310536 0.00473 0.99526995 0.0029663 0.9970337 0.0059326 0.9940674 0.01169218 0.9883078199999999 0.0100553 0.9899447300000001 0.0068984 0.99310162 0.0043261 0.9956739 0.008652200000000001 0.99134779 0.01603405 0.98396595 0.0137893 0.98621071 0.009460100000000001 0.99053991 0.0059326 0.9940674 0.0118652 0.9881348 0.0191474 0.9808526 0.0164668 0.98353324 0.011297 0.98870304 0.0070845 0.99291546 0.0141691 0.98583093 0.0279249 0.9720751 0.0240154 0.97598458 0.0164757 0.98352431 0.0103322 0.98966779 0.0206644 0.97933557 0.03829479 0.96170521 0.0329335 0.96706648 0.0225939 0.97740607 0.0141691 0.98583093 0.0283381 0.97166185 0.01309959 0.98690041 0.0112656 0.98873435 0.0077288 0.99227124 0.0048468 0.99515315 0.0096937 0.9903063 0.01910468 0.98089532 0.01643 0.98356998 0.0112718 0.98872824 0.0070687 0.99293127 0.0141375 0.98586254 0.02619918 0.97380082 0.0225313 0.9774687 0.0154575 0.98454248 0.0096937 0.9903063 0.0193874 0.9806125999999999 0.03019289 0.96980711 0.0259659 0.97403411 0.0178138 0.98218619 0.0111714 0.98882863 0.0223427 0.97765726 0.04403385 0.95596615 0.0378691 0.96213089 0.02598 0.97402003 0.0162925 0.98370747 0.0325851 0.96741495 0.06038578 0.9396142200000001 0.0519318 0.94806823 0.0356276 0.96437239 0.0223427 0.97765726 0.0446855 0.9553145199999999 0.02065631 0.97934369 0.0177644 0.9822355699999999 0.0121872 0.9878127799999999 0.0076428 0.99235716 0.0152857 0.98471433 0.03012553 0.96987447 0.025908 0.97409204 0.0177741 0.98222594 0.0111464 0.98885355 0.0222929 0.97770711 0.04131262 0.95868738 0.0355289 0.9644711500000001 0.0243744 0.97562555 0.0152857 0.98471433 0.0305713 0.9694286600000001 0.03029214 0.96970786 0.0260512 0.97394876 0.0178724 0.98212764 0.0112081 0.98879191 0.0224162 0.97758382 0.05163086 0.9483691400000001 0.0444025 0.95559746 0.0304622 0.96953779 0.0191034 0.98089658 0.0382068 0.96179316 0.06370149999999999 0.9362985 0.0547833 0.94521671 0.0375839 0.96241611 0.0235696 0.97643044 0.0471391 0.95286089 0.01479204 0.98520796 0.0127212 0.98727884 0.0087273 0.9912727 0.0054731 0.99452694 0.0109461 0.98905389 0.02521202 0.97478798 0.0216823 0.97831767 0.0148751 0.98512491 0.009328400000000001 0.99067155 0.0186569 0.98134311 0.03110626 0.9688937399999999 0.0267514 0.97324861 0.0183527 0.9816473 0.0115093 0.98849068 0.0230186 0.97698136 0.05771263 0.94228737 0.0496329 0.95036714 0.0340505 0.96594955 0.0213537 0.97864633 0.0427073 0.95729266 0.0983672 0.9016328 0.0845958 0.9154042100000001 0.0580366 0.94196335 0.0363959 0.9636041400000001 0.0727917 0.9272082699999999 0.1213642 0.8786358 0.1043732 0.89562679 0.0716049 0.92839512 0.0449048 0.95509525 0.0898095 0.9101905 0.02818182 0.97181818 0.0242364 0.97576363 0.0166273 0.98337273 0.0104273 0.98957273 0.0208545 0.97914545 0.04803397 0.95196603 0.0413092 0.95869078 0.02834 0.97165996 0.0177726 0.98222743 0.0355451 0.96445486 0.0592637 0.9407363 0.0509668 0.94903322 0.0349656 0.9650344199999999 0.0219276 0.97807243 0.0438551 0.95614486 0.07458099999999999 0.925419 0.06413969999999999 0.93586034 0.0440028 0.95599721 0.027595 0.97240503 0.0551899 0.94481006 0.12711818 0.87288182 0.1093216 0.89067836 0.0749997 0.92500027 0.0470337 0.95296627 0.0940675 0.90593254 0.15683679 0.8431632100000001 0.1348796 0.86512036 0.0925337 0.90746629 0.0580296 0.94197039 0.1160592 0.88394077 0.03641887 0.96358113 0.0313202 0.96867978 0.0214871 0.97851287 0.013475 0.98652502 0.02695 0.9730500399999999 0.06207345 0.93792655 0.0533832 0.94661684 0.0366233 0.96337667 0.0229672 0.97703282 0.0459344 0.95406565 0.07658543 0.92341457 0.06586350000000001 0.93413653 0.0451854 0.9548146 0.0283366 0.97166339 0.0566732 0.94332678 0.01559865 0.98440135 0.0134148 0.98658516 0.0092032 0.9907968 0.0057715 0.9942285 0.011543 0.988457 0.0266779 0.9733221 0.022943 0.97705701 0.01574 0.98426004 0.009870800000000001 0.9901291800000001 0.0197416 0.9802583499999999 0.04751544 0.95248456 0.0408633 0.9591367200000001 0.0280341 0.97196589 0.0175807 0.9824192899999999 0.0351614 0.96483857 0.00903135 0.99096865 0.007767 0.99223304 0.0053285 0.99467151 0.0033416 0.9966584000000001 0.0066832 0.9933168 0.01544604 0.98455396 0.0132836 0.9867164 0.0091132 0.99088683 0.005715 0.99428496 0.0114301 0.98856993 0.02751062 0.97248938 0.0236591 0.97634087 0.0162313 0.98376873 0.0101789 0.98982107 0.0203579 0.9796421400000001 0.03986814 0.9601318599999999 0.0342866 0.9657134000000001 0.0235222 0.9764778 0.0147512 0.98524879 0.0295024 0.97049758 0.0681853 0.9318147 0.0586394 0.94136065 0.0402293 0.95977068 0.0252286 0.97477144 0.0504571 0.94954288 0.12144338 0.87855662 0.1044413 0.89555869 0.0716516 0.9283484 0.0449341 0.9550659500000001 0.08986810000000001 0.9101319 0.02308297 0.97691703 0.0198514 0.98014865 0.0136189 0.98638105 0.0085407 0.9914593 0.0170814 0.98291861 0.03947811 0.96052189 0.0339512 0.96604883 0.0232921 0.97670792 0.0146069 0.9853931 0.0292138 0.9707862 0.07031361999999999 0.92968638 0.0604697 0.9395302800000001 0.041485 0.95851496 0.026016 0.97398396 0.0520321 0.94796792 0.07402973 0.92597027 0.0636656 0.9363344300000001 0.0436775 0.95632246 0.027391 0.9726089999999999 0.054782 0.945218 0.12661085 0.8733891499999999 0.1088853 0.89111467 0.0747004 0.9252996 0.046846 0.95315399 0.093692 0.90630797 0.2255039 0.7744961 0.1939333 0.80606665 0.1330473 0.8669527 0.08343639999999999 0.9165635600000001 0.1668729 0.83312712 0.04286194 0.95713806 0.0368613 0.9631387300000001 0.0252885 0.97471146 0.0158589 0.98414108 0.0317178 0.9682821700000001 0.0733055 0.9266945 0.06304269999999999 0.93695727 0.0432502 0.95674976 0.027123 0.97287697 0.0542461 0.94575393 0.13056286 0.8694371400000001 0.1122841 0.88771594 0.07703210000000001 0.92296791 0.0483083 0.95169174 0.09661649999999999 0.90338348 0.03029214 0.96970786 0.0260512 0.97394876 0.0178724 0.98212764 0.0112081 0.98879191 0.0224162 0.97758382 0.05163086 0.9483691400000001 0.0444025 0.95559746 0.0304622 0.96953779 0.0191034 0.98089658 0.0382068 0.96179316 0.06370149999999999 0.9362985 0.0547833 0.94521671 0.0375839 0.96241611 0.0235696 0.97643044 0.0471391 0.95286089 0.01479204 0.98520796 0.0127212 0.98727884 0.0087273 0.9912727 0.0054731 0.99452694 0.0109461 0.98905389 0.02521202 0.97478798 0.0216823 0.97831767 0.0148751 0.98512491 0.009328400000000001 0.99067155 0.0186569 0.98134311 0.03110626 0.9688937399999999 0.0267514 0.97324861 0.0183527 0.9816473 0.0115093 0.98849068 0.0230186 0.97698136 0.05771263 0.94228737 0.0496329 0.95036714 0.0340505 0.96594955 0.0213537 0.97864633 0.0427073 0.95729266 0.0983672 0.9016328 0.0845958 0.9154042100000001 0.0580366 0.94196335 0.0363959 0.9636041400000001 0.0727917 0.9272082699999999 0.1213642 0.8786358 0.1043732 0.89562679 0.0716049 0.92839512 0.0449048 0.95509525 0.0898095 0.9101905 0.02818182 0.97181818 0.0242364 0.97576363 0.0166273 0.98337273 0.0104273 0.98957273 0.0208545 0.97914545 0.04803397 0.95196603 0.0413092 0.95869078 0.02834 0.97165996 0.0177726 0.98222743 0.0355451 0.96445486 0.0592637 0.9407363 0.0509668 0.94903322 0.0349656 0.9650344199999999 0.0219276 0.97807243 0.0438551 0.95614486 0.07458099999999999 0.925419 0.06413969999999999 0.93586034 0.0440028 0.95599721 0.027595 0.97240503 0.0551899 0.94481006 0.12711818 0.87288182 0.1093216 0.89067836 0.0749997 0.92500027 0.0470337 0.95296627 0.0940675 0.90593254 0.15683679 0.8431632100000001 0.1348796 0.86512036 0.0925337 0.90746629 0.0580296 0.94197039 0.1160592 0.88394077 0.03641887 0.96358113 0.0313202 0.96867978 0.0214871 0.97851287 0.013475 0.98652502 0.02695 0.9730500399999999 0.06207345 0.93792655 0.0533832 0.94661684 0.0366233 0.96337667 0.0229672 0.97703282 0.0459344 0.95406565 0.07658543 0.92341457 0.06586350000000001 0.93413653 0.0451854 0.9548146 0.0283366 0.97166339 0.0566732 0.94332678 0.02601467 0.97398533 0.0223726 0.97762739 0.0153487 0.98465135 0.009625399999999999 0.99037457 0.0192509 0.98074915 0.03794025 0.96205975 0.0326286 0.96737138 0.0223848 0.97761525 0.0140379 0.98596211 0.0280758 0.97192421 0.05202933 0.94797067 0.0447452 0.95525477 0.0306973 0.96930269 0.0192509 0.98074915 0.0385017 0.96149829 0.0177978 0.9822022 0.0153061 0.98469389 0.0105007 0.9894993 0.0065852 0.99341481 0.0131704 0.98682963 0.02595663 0.97404337 0.0223227 0.9776773 0.0153144 0.98468559 0.009604 0.99039605 0.0192079 0.98079209 0.0355956 0.9644044000000001 0.0306122 0.96938778 0.0210014 0.9789986000000001 0.0131704 0.98682963 0.0263407 0.97365926 0.04250722 0.95749278 0.0365562 0.96344379 0.0250793 0.97492074 0.0157277 0.98427233 0.0314553 0.9685446599999999 0.06199329 0.93800671 0.0533142 0.94668577 0.036576 0.96342396 0.0229375 0.97706248 0.045875 0.95412497 0.08501444 0.91498556 0.07311239999999999 0.92688758 0.0501585 0.94984148 0.0314553 0.9685446599999999 0.0629107 0.93708932 0.02908109 0.97091891 0.0250097 0.97499026 0.0171578 0.98284215 0.01076 0.98924 0.02152 0.97847999 0.04241239 0.95758761 0.0364747 0.9635253499999999 0.0250233 0.97497669 0.0156926 0.98430742 0.0313852 0.96861483 0.05816219 0.94183781 0.0500195 0.94998052 0.0343157 0.96568431 0.02152 0.97847999 0.04304 0.95695998 0.06702822 0.93297178 0.0576443 0.9423557299999999 0.0395467 0.96045335 0.0248004 0.97519956 0.0496009 0.95039912 0.09775515 0.90224485 0.0840694 0.91593057 0.0576755 0.94232446 0.0361694 0.96383059 0.07233879999999999 0.92766119 0.13405644 0.8659435599999999 0.1152885 0.88471146 0.07909330000000001 0.9209067 0.0496009 0.95039912 0.09920180000000001 0.90079823 0.04585701 0.95414299 0.039437 0.96056297 0.0270556 0.97294436 0.0169671 0.98303291 0.0339342 0.96606581 0.06687868 0.93312132 0.0575157 0.94248433 0.0394584 0.96054158 0.0247451 0.97525489 0.0494902 0.95050978 0.09171401999999999 0.90828598 0.0788741 0.92112594 0.0541113 0.94588873 0.0339342 0.96606581 0.0678684 0.93213163 0.06590587000000001 0.93409413 0.056679 0.94332095 0.0388845 0.96111554 0.0243852 0.97561483 0.0487703 0.95122966 0.11233201 0.88766799 0.0966055 0.9033944699999999 0.0662759 0.93372411 0.0415628 0.95843716 0.0831257 0.91687431 0.1385938 0.8614062 0.1191907 0.8808093299999999 0.0817703 0.9182296599999999 0.0512797 0.94872029 0.1025594 0.89744058 0.03218269 0.96781731 0.0276771 0.9723228900000001 0.0189878 0.98101222 0.0119076 0.98809241 0.0238152 0.97618481 0.05485317 0.94514683 0.0471737 0.95282627 0.0323634 0.96763663 0.0202957 0.97970433 0.0405913 0.95940865 0.06767714 0.93232286 0.0582023 0.94179766 0.0399295 0.96007049 0.0250405 0.97495946 0.0500811 0.94991892 0.12556396 0.87443604 0.107985 0.89201499 0.0740827 0.92591726 0.0464587 0.95354133 0.09291729999999999 0.90708267 0.21401512 0.78598488 0.184053 0.815947 0.1262689 0.87373108 0.07918559999999999 0.92081441 0.1583712 0.84162881 0.26404913 0.73595087 0.2270823 0.77291775 0.155789 0.84421101 0.0976982 0.90230182 0.1953964 0.80460364 0.0613145 0.9386855 0.0527305 0.94726953 0.0361756 0.96382444 0.0226864 0.97731363 0.0453727 0.95462727 0.10450634 0.89549366 0.0898755 0.91012455 0.0616587 0.93834126 0.0386673 0.96133265 0.07733470000000001 0.92266531 0.12893859 0.87106141 0.1108872 0.88911281 0.0760738 0.92392623 0.0477073 0.95229272 0.0954146 0.90458544 0.16226408 0.83773592 0.1395471 0.86045289 0.0957358 0.90426419 0.0600377 0.93996229 0.1200754 0.87992458 0.27656794 0.72343206 0.2378484 0.76215157 0.1631751 0.83682492 0.1023301 0.89766986 0.2046603 0.79533973 0.341226 0.658774 0.2934544 0.70654564 0.2013233 0.79867666 0.1262536 0.87374638 0.2525072 0.74749276 0.07923564 0.9207643599999999 0.0681427 0.93185735 0.046749 0.95325097 0.0293172 0.97068281 0.0586344 0.94136563 0.13505169 0.8649483100000001 0.1161445 0.88385555 0.0796805 0.9203195 0.0499691 0.95003087 0.09993829999999999 0.90006175 0.16662505 0.8333749499999999 0.1432975 0.85670245 0.0983088 0.90169122 0.0616513 0.93834873 0.1233025 0.87669746 0.03393759 0.96606241 0.0291863 0.97081367 0.0200232 0.97997682 0.0125569 0.98744309 0.0251138 0.97488618 0.05804246 0.94195754 0.0499165 0.95008349 0.0342451 0.96575495 0.0214757 0.97852429 0.0429514 0.95704858 0.10337819 0.89662181 0.0889052 0.91109475 0.0609931 0.93900687 0.0382499 0.96175007 0.0764999 0.92350014 0.01964928 0.98035072 0.0168984 0.98310162 0.0115931 0.98840692 0.0072702 0.99272977 0.0145405 0.98545953 0.03360558 0.96639442 0.0289008 0.9710992000000001 0.0198273 0.9801727099999999 0.0124341 0.98756593 0.0248681 0.97513187 0.05985419 0.94014581 0.0514746 0.9485254 0.035314 0.96468603 0.0221461 0.97785395 0.0442921 0.9557079000000001 0.08674013999999999 0.91325986 0.0745965 0.9254034799999999 0.0511767 0.94882332 0.0320939 0.96790615 0.0641877 0.93581229 0.14834909 0.85165091 0.1275802 0.87241978 0.08752600000000001 0.91247404 0.0548892 0.94511084 0.1097783 0.89022167 0.26422142 0.73577858 0.2272304 0.77276958 0.1558906 0.84410936 0.0977619 0.9022380800000001 0.1955238 0.8044761499999999 0.05022105 0.94977895 0.0431901 0.9568099 0.0296304 0.97036958 0.0185818 0.98141821 0.0371636 0.96283643 0.08589156000000001 0.91410844 0.07386669999999999 0.92613326 0.050676 0.94932398 0.0317799 0.96822012 0.0635598 0.93644024 0.15297964 0.84702036 0.1315625 0.86843751 0.090258 0.90974201 0.0566025 0.94339753 0.1132049 0.88679506 0.16106468 0.83893532 0.1385156 0.86148437 0.09502819999999999 0.90497184 0.0595939 0.94040607 0.1191879 0.88081213 0.27546414 0.72453586 0.2368992 0.76310084 0.1625238 0.83747616 0.1019217 0.89807827 0.2038435 0.79615654 0.49062334 0.50937666 0.4219361 0.57806393 0.2894678 0.71053223 0.1815306 0.81846936 0.3630613 0.63693873 0.09325367 0.90674633 0.0801982 0.91980184 0.0550197 0.94498033 0.0345039 0.9654961399999999 0.06900770000000001 0.93099228 0.15948898 0.84051102 0.1371605 0.8628394700000001 0.0940985 0.9059015 0.0590109 0.94098908 0.1180218 0.88197815 0.28406245 0.71593755 0.2442937 0.75570629 0.1675968 0.83240316 0.1051031 0.8948968899999999 0.2102062 0.7897937900000001 0.06590587000000001 0.93409413 0.056679 0.94332095 0.0388845 0.96111554 0.0243852 0.97561483 0.0487703 0.95122966 0.11233201 0.88766799 0.0966055 0.9033944699999999 0.0662759 0.93372411 0.0415628 0.95843716 0.0831257 0.91687431 0.1385938 0.8614062 0.1191907 0.8808093299999999 0.0817703 0.9182296599999999 0.0512797 0.94872029 0.1025594 0.89744058 0.03218269 0.96781731 0.0276771 0.9723228900000001 0.0189878 0.98101222 0.0119076 0.98809241 0.0238152 0.97618481 0.05485317 0.94514683 0.0471737 0.95282627 0.0323634 0.96763663 0.0202957 0.97970433 0.0405913 0.95940865 0.06767714 0.93232286 0.0582023 0.94179766 0.0399295 0.96007049 0.0250405 0.97495946 0.0500811 0.94991892 0.12556396 0.87443604 0.107985 0.89201499 0.0740827 0.92591726 0.0464587 0.95354133 0.09291729999999999 0.90708267 0.21401512 0.78598488 0.184053 0.815947 0.1262689 0.87373108 0.07918559999999999 0.92081441 0.1583712 0.84162881 0.26404913 0.73595087 0.2270823 0.77291775 0.155789 0.84421101 0.0976982 0.90230182 0.1953964 0.80460364 0.0613145 0.9386855 0.0527305 0.94726953 0.0361756 0.96382444 0.0226864 0.97731363 0.0453727 0.95462727 0.10450634 0.89549366 0.0898755 0.91012455 0.0616587 0.93834126 0.0386673 0.96133265 0.07733470000000001 0.92266531 0.12893859 0.87106141 0.1108872 0.88911281 0.0760738 0.92392623 0.0477073 0.95229272 0.0954146 0.90458544 0.16226408 0.83773592 0.1395471 0.86045289 0.0957358 0.90426419 0.0600377 0.93996229 0.1200754 0.87992458 0.27656794 0.72343206 0.2378484 0.76215157 0.1631751 0.83682492 0.1023301 0.89766986 0.2046603 0.79533973 0.341226 0.658774 0.2934544 0.70654564 0.2013233 0.79867666 0.1262536 0.87374638 0.2525072 0.74749276 0.07923564 0.9207643599999999 0.0681427 0.93185735 0.046749 0.95325097 0.0293172 0.97068281 0.0586344 0.94136563 0.13505169 0.8649483100000001 0.1161445 0.88385555 0.0796805 0.9203195 0.0499691 0.95003087 0.09993829999999999 0.90006175 0.16662505 0.8333749499999999 0.1432975 0.85670245 0.0983088 0.90169122 0.0616513 0.93834873 0.1233025 0.87669746 0.05659948 0.94340052 0.0486756 0.95132445 0.0333937 0.96660631 0.0209418 0.9790581900000001 0.0418836 0.95811639 0.08254569 0.91745431 0.07098930000000001 0.92901071 0.048702 0.95129804 0.0305419 0.9694580900000001 0.0610838 0.93891619 0.11319896 0.88680104 0.0973511 0.9026489 0.0667874 0.93321262 0.0418836 0.95811639 0.0837672 0.91623277 0.03872224 0.96127776 0.0333011 0.96669887 0.0228461 0.97715388 0.0143272 0.98567277 0.0286545 0.97134554 0.05647321 0.9435267899999999 0.048567 0.95143304 0.0333192 0.9666808099999999 0.0208951 0.97910491 0.0417902 0.95820983 0.07744448 0.92255552 0.0666023 0.93339775 0.0456922 0.9543077599999999 0.0286545 0.97134554 0.0573089 0.94269109 0.09248192 0.90751808 0.07953449999999999 0.92046555 0.0545643 0.94543567 0.0342183 0.96578169 0.0684366 0.9315633800000001 0.13487729 0.86512271 0.1159945 0.88400553 0.0795776 0.9204224 0.0499046 0.9500954 0.0998092 0.90019081 0.18496384 0.81503616 0.1590689 0.84093109 0.1091287 0.89087133 0.0684366 0.9315633800000001 0.1368732 0.8631267500000001 0.06327103000000001 0.93672897 0.0544131 0.94558692 0.0373299 0.96267009 0.0234103 0.97658972 0.0468206 0.95317944 0.0922756 0.9077244 0.079357 0.92064299 0.0544426 0.9455574 0.034142 0.96585803 0.06828389999999999 0.93171606 0.12654206 0.87345794 0.1088262 0.8911738299999999 0.0746598 0.92534019 0.0468206 0.95317944 0.0936411 0.90635888 0.14583167 0.85416833 0.1254152 0.87458476 0.0860407 0.91395931 0.0539577 0.94604228 0.1079154 0.89208456 0.21268351 0.78731649 0.1829078 0.8170921799999999 0.1254833 0.87451673 0.0786929 0.9213071 0.1573858 0.8426142 0.29166334 0.70833666 0.2508305 0.74916953 0.1720814 0.82791863 0.1079154 0.89208456 0.2158309 0.78416913 0.09976997999999999 0.90023002 0.0858022 0.91419782 0.0588643 0.94113571 0.0369149 0.96308511 0.0738298 0.92617021 0.14550632 0.85449368 0.1251354 0.87486456 0.0858487 0.91415127 0.0538373 0.94616266 0.1076747 0.89232532 0.19953996 0.80046004 0.1716044 0.82839563 0.1177286 0.88227142 0.0738298 0.92617021 0.1476596 0.85234043 0.00984351 0.9901564899999999 0.0084654 0.99153459 0.0058077 0.99419233 0.0036421 0.9963579 0.0072842 0.99271581 0.01677758 0.98322242 0.0144287 0.98557128 0.009898799999999999 0.9901012300000001 0.0062077 0.9937923 0.0124154 0.98758459 0.02069996 0.97930004 0.017802 0.9821980300000001 0.012213 0.98778702 0.007659 0.99234101 0.015318 0.98468203 0.00480671 0.99519329 0.0041338 0.99586623 0.002836 0.99716404 0.0017785 0.99822152 0.003557 0.99644303 0.008192710000000001 0.99180729 0.0070457 0.99295427 0.0048337 0.9951662999999999 0.0030313 0.9969687 0.0060626 0.9939374 0.01010806 0.98989194 0.0086929 0.99130707 0.0059638 0.99403625 0.00374 0.99626002 0.00748 0.99252004 0.01875386 0.98124614 0.0161283 0.98387168 0.0110648 0.98893522 0.0069389 0.99306107 0.0138779 0.98612214 0.03196467 0.96803533 0.0274896 0.9725103899999999 0.0188592 0.98114085 0.0118269 0.98817307 0.0236539 0.97634615 0.0394376 0.9605624 0.0339163 0.9660836699999999 0.0232682 0.97673182 0.0145919 0.98540809 0.0291838 0.97081618 0.009157749999999999 0.99084225 0.007875699999999999 0.99212433 0.0054031 0.99459693 0.0033884 0.99661163 0.0067767 0.9932232600000001 0.01560876 0.98439124 0.0134235 0.98657647 0.009209200000000001 0.99079083 0.0057752 0.99422476 0.0115505 0.98844952 0.01925789 0.98074211 0.0165618 0.98343822 0.0113622 0.98863785 0.0071254 0.99287458 0.0142508 0.98574916 0.02423528 0.97576472 0.0208423 0.97915766 0.0142988 0.98570118 0.0089671 0.99103295 0.0179341 0.98206589 0.04130737 0.95869263 0.0355243 0.96447566 0.0243713 0.97562865 0.0152837 0.9847162699999999 0.0305675 0.9694325499999999 0.05096451 0.94903549 0.0438295 0.95617052 0.0300691 0.96993094 0.0188569 0.98114313 0.0377137 0.96228627 0.0118344 0.9881656 0.0101776 0.98982242 0.0069823 0.9930177 0.0043787 0.99562127 0.0087575 0.99124254 0.02017092 0.97982908 0.017347 0.98265301 0.0119008 0.98809916 0.0074632 0.99253676 0.0149265 0.98507352 0.02488663 0.97511337 0.0214025 0.9785975 0.0146831 0.98531689 0.0092081 0.99079195 0.0184161 0.9815839 0.00506882 0.99493118 0.0043592 0.99564082 0.0029906 0.9970094 0.0018755 0.9981245399999999 0.0037509 0.99624907 0.008669049999999999 0.99133095 0.0074554 0.99254462 0.0051147 0.99488526 0.0032075 0.9967924500000001 0.0064151 0.9935849 0.01544026 0.98455974 0.0132786 0.98672138 0.009109799999999999 0.99089025 0.0057129 0.9942871 0.0114258 0.98857421 0.00293476 0.99706524 0.0025239 0.99747611 0.0017315 0.99826849 0.0010859 0.99891414 0.0021717 0.99782828 0.00501923 0.99498077 0.0043165 0.99568346 0.0029613 0.99703865 0.0018571 0.99814288 0.0037142 0.99628577 0.00893964 0.99106036 0.0076881 0.99231191 0.0052744 0.99472561 0.0033077 0.99669233 0.0066153 0.99338466 0.01295525 0.98704475 0.0111415 0.98885848 0.0076436 0.9923564 0.0047934 0.99520656 0.009586900000000001 0.99041311 0.02215698 0.97784302 0.019055 0.980945 0.0130726 0.98692738 0.0081981 0.99180192 0.0163962 0.98360383 0.03946333 0.96053667 0.0339385 0.96606154 0.0232834 0.97671664 0.0146014 0.98539857 0.0292029 0.9707971399999999 0.00750087 0.99249913 0.0064507 0.9935492500000001 0.0044255 0.99557449 0.0027753 0.99722468 0.0055506 0.9944493599999999 0.01282851 0.98717149 0.0110325 0.98896748 0.0075688 0.99243118 0.0047465 0.99525345 0.009493100000000001 0.9905069 0.02284859 0.9771514100000001 0.0196498 0.98035022 0.0134807 0.98651933 0.008454 0.99154602 0.016908 0.98309205 0.02405614 0.97594386 0.0206883 0.97931172 0.0141931 0.98580687 0.0089008 0.99109923 0.0178015 0.9821984499999999 0.04114251 0.95885749 0.0353826 0.96461744 0.0242741 0.97572592 0.0152227 0.98477727 0.0304455 0.96955454 0.07327805 0.92672195 0.06301909999999999 0.93698088 0.0432341 0.95676595 0.0271129 0.97288712 0.0542258 0.94577424 0.01392809 0.9860719100000001 0.0119782 0.98802184 0.0082176 0.99178243 0.0051534 0.99484661 0.0103068 0.98969321 0.0238208 0.9761792 0.0204859 0.97951411 0.0140543 0.98594573 0.008813700000000001 0.9911863 0.0176274 0.98237261 0.04242673 0.95757327 0.036487 0.96351301 0.0250318 0.97496823 0.0156979 0.98430211 0.0313958 0.96860422 0.00984351 0.9901564899999999 0.0084654 0.99153459 0.0058077 0.99419233 0.0036421 0.9963579 0.0072842 0.99271581 0.01677758 0.98322242 0.0144287 0.98557128 0.009898799999999999 0.9901012300000001 0.0062077 0.9937923 0.0124154 0.98758459 0.02069996 0.97930004 0.017802 0.9821980300000001 0.012213 0.98778702 0.007659 0.99234101 0.015318 0.98468203 0.00480671 0.99519329 0.0041338 0.99586623 0.002836 0.99716404 0.0017785 0.99822152 0.003557 0.99644303 0.008192710000000001 0.99180729 0.0070457 0.99295427 0.0048337 0.9951662999999999 0.0030313 0.9969687 0.0060626 0.9939374 0.01010806 0.98989194 0.0086929 0.99130707 0.0059638 0.99403625 0.00374 0.99626002 0.00748 0.99252004 0.01875386 0.98124614 0.0161283 0.98387168 0.0110648 0.98893522 0.0069389 0.99306107 0.0138779 0.98612214 0.03196467 0.96803533 0.0274896 0.9725103899999999 0.0188592 0.98114085 0.0118269 0.98817307 0.0236539 0.97634615 0.0394376 0.9605624 0.0339163 0.9660836699999999 0.0232682 0.97673182 0.0145919 0.98540809 0.0291838 0.97081618 0.009157749999999999 0.99084225 0.007875699999999999 0.99212433 0.0054031 0.99459693 0.0033884 0.99661163 0.0067767 0.9932232600000001 0.01560876 0.98439124 0.0134235 0.98657647 0.009209200000000001 0.99079083 0.0057752 0.99422476 0.0115505 0.98844952 0.01925789 0.98074211 0.0165618 0.98343822 0.0113622 0.98863785 0.0071254 0.99287458 0.0142508 0.98574916 0.02423528 0.97576472 0.0208423 0.97915766 0.0142988 0.98570118 0.0089671 0.99103295 0.0179341 0.98206589 0.04130737 0.95869263 0.0355243 0.96447566 0.0243713 0.97562865 0.0152837 0.9847162699999999 0.0305675 0.9694325499999999 0.05096451 0.94903549 0.0438295 0.95617052 0.0300691 0.96993094 0.0188569 0.98114313 0.0377137 0.96228627 0.0118344 0.9881656 0.0101776 0.98982242 0.0069823 0.9930177 0.0043787 0.99562127 0.0087575 0.99124254 0.02017092 0.97982908 0.017347 0.98265301 0.0119008 0.98809916 0.0074632 0.99253676 0.0149265 0.98507352 0.02488663 0.97511337 0.0214025 0.9785975 0.0146831 0.98531689 0.0092081 0.99079195 0.0184161 0.9815839 0.008453530000000001 0.99154647 0.00727 0.99272996 0.0049876 0.99501242 0.0031278 0.99687219 0.0062556 0.99374439 0.01232878 0.98767122 0.0106028 0.98939725 0.007274 0.99272602 0.0045616 0.99543835 0.009123300000000001 0.9908767000000001 0.01690706 0.98309294 0.0145401 0.98545993 0.0099752 0.99002483 0.0062556 0.99374439 0.0125112 0.98748877 0.00578344 0.99421656 0.0049738 0.99502624 0.0034122 0.99658777 0.0021399 0.99786013 0.0042797 0.99572025 0.00843467 0.99156533 0.0072538 0.99274618 0.0049765 0.99502354 0.0031208 0.99687917 0.0062417 0.99375834 0.01156688 0.9884331200000001 0.0099475 0.99005248 0.0068245 0.99317554 0.0042797 0.99572025 0.008559499999999999 0.99144051 0.01381283 0.98618717 0.011879 0.98812097 0.0081496 0.9918504299999999 0.0051107 0.9948892499999999 0.0102215 0.9897785099999999 0.02014487 0.97985513 0.0173246 0.98267541 0.0118855 0.98811453 0.0074536 0.9925464000000001 0.0149072 0.9850927900000001 0.02762565 0.9723743500000001 0.0237581 0.97624194 0.0162991 0.98370086 0.0102215 0.9897785099999999 0.020443 0.97955702 0.00944997 0.99055003 0.008127000000000001 0.99187302 0.0055755 0.99442452 0.0034965 0.99650351 0.006993 0.99300702 0.01378201 0.98621799 0.0118525 0.98814747 0.0081314 0.99186861 0.0050993 0.99490066 0.0101987 0.98980131 0.01889995 0.98110005 0.016254 0.98374605 0.011151 0.98884903 0.006993 0.99300702 0.013986 0.98601404 0.02178099 0.97821901 0.0187316 0.98126835 0.0128508 0.98714922 0.008059 0.99194103 0.0161179 0.9838820700000001 0.03176578 0.96823422 0.0273186 0.97268143 0.0187418 0.98125819 0.0117533 0.9882466600000001 0.0235067 0.97649332 0.04356197 0.9564380300000001 0.0374633 0.9625367 0.0257016 0.97429844 0.0161179 0.9838820700000001 0.0322359 0.96776414 0.01490135 0.98509865 0.0128152 0.98718484 0.008791800000000001 0.9912082 0.0055135 0.9944865000000001 0.011027 0.988973 0.02173239 0.97826761 0.0186899 0.9813101400000001 0.0128221 0.98717789 0.008041 0.99195901 0.016082 0.98391803 0.0298027 0.9701973 0.0256303 0.97436968 0.0175836 0.98241641 0.011027 0.988973 0.022054 0.977946 0.02185258 0.97814742 0.0187932 0.9812067799999999 0.012893 0.98710698 0.008085500000000001 0.99191454 0.0161709 0.98382909 0.03724622 0.96275378 0.0320318 0.96796825 0.0219753 0.97802473 0.0137811 0.9862189 0.0275622 0.9724378 0.04595391 0.95404609 0.0395204 0.96047963 0.0271128 0.97288719 0.0170029 0.98299705 0.0340059 0.9659941 0.0106709 0.9893291 0.009176999999999999 0.99082303 0.0062958 0.99370417 0.0039482 0.99605177 0.007896500000000001 0.99210354 0.01818781 0.98181219 0.0156415 0.98435848 0.0107308 0.98926919 0.0067295 0.99327051 0.013459 0.98654102 0.02243989 0.97756011 0.0192983 0.9807017 0.0132395 0.98676047 0.008302800000000001 0.99169724 0.0166055 0.98339448 0.04163357 0.95836643 0.0358049 0.96419513 0.0245638 0.97543619 0.0154044 0.98459558 0.0308088 0.9691911600000001 0.07096156000000001 0.92903844 0.0610269 0.93897306 0.0418673 0.95813268 0.0262558 0.97374422 0.0525116 0.94748845 0.08755147000000001 0.91244853 0.07529429999999999 0.9247057400000001 0.0516554 0.94834464 0.032394 0.96760596 0.0647881 0.93521192 0.02033021 0.97966979 0.017484 0.98251602 0.0119948 0.98800518 0.0075222 0.99247782 0.0150444 0.98495564 0.03465144 0.96534856 0.0298002 0.97019976 0.0204444 0.97955565 0.012821 0.98717897 0.0256421 0.97435793 0.04275251 0.95724749 0.0367672 0.96323284 0.025224 0.97477602 0.0158184 0.98418157 0.0316369 0.96836314 0.05380233 0.94619767 0.04627 0.95373 0.0317434 0.96825663 0.0199069 0.98009314 0.0398137 0.9601862799999999 0.09170236 0.90829764 0.078864 0.92113597 0.0541044 0.94589561 0.0339299 0.96607013 0.0678597 0.93214025 0.1131412 0.8868587999999999 0.0973014 0.90269856 0.0667533 0.93324669 0.0418622 0.95813775 0.08372449999999999 0.91627551 0.02627237 0.97372763 0.0225942 0.97740576 0.0155007 0.9844993 0.0097208 0.99027922 0.0194416 0.98055845 0.04477944 0.95522056 0.0385103 0.96148968 0.0264199 0.97358013 0.0165684 0.98343161 0.0331368 0.96686321 0.05524831 0.94475169 0.0475135 0.95248645 0.0325965 0.9674035 0.0204419 0.97955813 0.0408837 0.95911625 0.01125278 0.98874722 0.009677399999999999 0.99032261 0.0066391 0.99336086 0.0041635 0.99583647 0.0083271 0.9916729399999999 0.01924529 0.98075471 0.016551 0.98344905 0.0113547 0.98864528 0.0071208 0.9928792400000001 0.0142415 0.98575848 0.03427738 0.96572262 0.0294785 0.97052145 0.0202237 0.97977635 0.0126826 0.98731737 0.0253653 0.9746347400000001 0.00651516 0.99348484 0.005603 0.99439696 0.0038439 0.99615605 0.0024106 0.99758939 0.0048212 0.99517878 0.01114269 0.98885731 0.0095827 0.99041729 0.0065742 0.99342581 0.0041228 0.9958772 0.0082456 0.99175441 0.01984601 0.98015399 0.0170676 0.98293243 0.0117091 0.9882908500000001 0.007343 0.99265698 0.014686 0.98531395 0.02876066 0.97123934 0.0247342 0.97526583 0.0169688 0.98303121 0.0106414 0.98935856 0.0212829 0.9787171099999999 0.0491885 0.9508115 0.0423021 0.9576978900000001 0.0290212 0.97097879 0.0181997 0.98180026 0.0363995 0.96360051 0.08760859 0.91239141 0.0753434 0.92465661 0.0516891 0.94831093 0.0324152 0.96758482 0.0648304 0.93516964 0.01665192 0.98334808 0.0143207 0.98567934 0.009824599999999999 0.9901753599999999 0.0061612 0.99383879 0.0123224 0.9876775800000001 0.02847929 0.97152071 0.0244922 0.97550781 0.0168028 0.98319722 0.0105373 0.98946266 0.0210747 0.97892532 0.05072386 0.94927614 0.0436225 0.95637748 0.0299271 0.97007292 0.0187678 0.98123217 0.0375357 0.96246434 0.05340464 0.94659536 0.045928 0.95407201 0.0315087 0.96849126 0.0197597 0.98024028 0.0395194 0.96048057 0.09133637 0.9086636300000001 0.0785493 0.9214507199999999 0.0538885 0.94611154 0.0337945 0.96620554 0.06758889999999999 0.93241109 0.16267727 0.83732273 0.1399025 0.86009754 0.0959796 0.90402041 0.0601906 0.93980941 0.1203812 0.87961882 0.03092037 0.96907963 0.0265915 0.97340849 0.018243 0.98175698 0.0114405 0.9885594599999999 0.0228811 0.9771189300000001 0.05288218 0.94711782 0.0454787 0.95452132 0.0312005 0.96879951 0.0195664 0.98043359 0.0391328 0.96086718 0.09418733 0.90581267 0.08100110000000001 0.91899889 0.0555705 0.94442947 0.0348493 0.96515069 0.0696986 0.93030137 0.02185258 0.97814742 0.0187932 0.9812067799999999 0.012893 0.98710698 0.008085500000000001 0.99191454 0.0161709 0.98382909 0.03724622 0.96275378 0.0320318 0.96796825 0.0219753 0.97802473 0.0137811 0.9862189 0.0275622 0.9724378 0.04595391 0.95404609 0.0395204 0.96047963 0.0271128 0.97288719 0.0170029 0.98299705 0.0340059 0.9659941 0.0106709 0.9893291 0.009176999999999999 0.99082303 0.0062958 0.99370417 0.0039482 0.99605177 0.007896500000000001 0.99210354 0.01818781 0.98181219 0.0156415 0.98435848 0.0107308 0.98926919 0.0067295 0.99327051 0.013459 0.98654102 0.02243989 0.97756011 0.0192983 0.9807017 0.0132395 0.98676047 0.008302800000000001 0.99169724 0.0166055 0.98339448 0.04163357 0.95836643 0.0358049 0.96419513 0.0245638 0.97543619 0.0154044 0.98459558 0.0308088 0.9691911600000001 0.07096156000000001 0.92903844 0.0610269 0.93897306 0.0418673 0.95813268 0.0262558 0.97374422 0.0525116 0.94748845 0.08755147000000001 0.91244853 0.07529429999999999 0.9247057400000001 0.0516554 0.94834464 0.032394 0.96760596 0.0647881 0.93521192 0.02033021 0.97966979 0.017484 0.98251602 0.0119948 0.98800518 0.0075222 0.99247782 0.0150444 0.98495564 0.03465144 0.96534856 0.0298002 0.97019976 0.0204444 0.97955565 0.012821 0.98717897 0.0256421 0.97435793 0.04275251 0.95724749 0.0367672 0.96323284 0.025224 0.97477602 0.0158184 0.98418157 0.0316369 0.96836314 0.05380233 0.94619767 0.04627 0.95373 0.0317434 0.96825663 0.0199069 0.98009314 0.0398137 0.9601862799999999 0.09170236 0.90829764 0.078864 0.92113597 0.0541044 0.94589561 0.0339299 0.96607013 0.0678597 0.93214025 0.1131412 0.8868587999999999 0.0973014 0.90269856 0.0667533 0.93324669 0.0418622 0.95813775 0.08372449999999999 0.91627551 0.02627237 0.97372763 0.0225942 0.97740576 0.0155007 0.9844993 0.0097208 0.99027922 0.0194416 0.98055845 0.04477944 0.95522056 0.0385103 0.96148968 0.0264199 0.97358013 0.0165684 0.98343161 0.0331368 0.96686321 0.05524831 0.94475169 0.0475135 0.95248645 0.0325965 0.9674035 0.0204419 0.97955813 0.0408837 0.95911625 0.01876684 0.98123316 0.0161395 0.98386052 0.0110724 0.98892757 0.0069437 0.99305627 0.0138875 0.98611254 0.02736989 0.97263011 0.0235381 0.9764618900000001 0.0161482 0.98385176 0.0101269 0.98987314 0.0202537 0.97974628 0.03753368 0.96246632 0.032279 0.96772104 0.0221449 0.97785513 0.0138875 0.98611254 0.0277749 0.97222508 0.01283924 0.98716076 0.0110417 0.98895826 0.0075751 0.99242485 0.0047505 0.99524948 0.009501000000000001 0.99049897 0.01872497 0.98127503 0.0161035 0.98389653 0.0110477 0.98895227 0.0069282 0.99307176 0.0138565 0.9861435200000001 0.02567847 0.97432153 0.0220835 0.97791652 0.0151503 0.9848497000000001 0.009501000000000001 0.99049897 0.0190021 0.98099793 0.03066447 0.9693355299999999 0.0263714 0.97362855 0.018092 0.98190796 0.0113459 0.98865414 0.0226917 0.97730829 0.04472162 0.95527838 0.0384606 0.96153941 0.0263858 0.97361425 0.016547 0.983453 0.033094 0.966906 0.06132895 0.93867105 0.0527429 0.9472571 0.0361841 0.96381592 0.0226917 0.97730829 0.0453834 0.95461658 0.02097894 0.97902106 0.0180419 0.98195811 0.0123776 0.98762242 0.0077622 0.99223779 0.0155244 0.98447558 0.03059606 0.96940394 0.0263126 0.97368739 0.0180517 0.98194832 0.0113205 0.98867946 0.0226411 0.97735891 0.04195788 0.95804212 0.0360838 0.96391622 0.0247552 0.9752448500000001 0.0155244 0.98447558 0.0310488 0.96895117 0.04835379 0.95164621 0.0415843 0.95841574 0.0285287 0.9714712599999999 0.0178909 0.9821091 0.0357818 0.96421819 0.07052003 0.92947997 0.0606472 0.9393527699999999 0.0416068 0.95839318 0.0260924 0.97390759 0.0521848 0.94781518 0.09670758 0.90329242 0.08316850000000001 0.91683148 0.0570575 0.9429425299999999 0.0357818 0.96421819 0.0715636 0.92843639 0.033081 0.966919 0.0284497 0.97155034 0.0195178 0.98048221 0.01224 0.98776003 0.0244799 0.97552006 0.04824591 0.95175409 0.0414915 0.95850851 0.0284651 0.97153491 0.017851 0.98214901 0.035702 0.96429802 0.06616199 0.93383801 0.0568993 0.94310069 0.0390356 0.96096443 0.0244799 0.97552006 0.0489599 0.95104013 0.04754413 0.95245587 0.040888 0.95911205 0.028051 0.97194896 0.0175913 0.98240867 0.0351827 0.96481734 0.0810357 0.9189643 0.06969069999999999 0.9303093 0.0478111 0.95218894 0.0299832 0.97001679 0.0599664 0.94003358 0.09998081 0.90001919 0.0859835 0.9140165 0.0589887 0.94101132 0.0369929 0.9630071 0.0739858 0.9260142 0.02321641 0.97678359 0.0199661 0.98003389 0.0136977 0.98630232 0.0085901 0.99140993 0.0171801 0.9828198500000001 0.03957078 0.96042922 0.0340309 0.96596913 0.0233468 0.97665324 0.0146412 0.98535881 0.0292824 0.97071763 0.04882192 0.95117808 0.0419869 0.95801315 0.0288049 0.97119507 0.0180641 0.98193589 0.0361282 0.96387178 0.09058115 0.90941885 0.07789980000000001 0.92210021 0.0534429 0.94655712 0.033515 0.96648497 0.0670301 0.93296995 0.15438933 0.84561067 0.1327748 0.86722517 0.0910897 0.90891029 0.0571241 0.94287595 0.1142481 0.88575189 0.19048359 0.80951641 0.1638159 0.83618411 0.1123853 0.88761468 0.0704789 0.9295210699999999 0.1409579 0.85904214 0.04423194 0.95576806 0.0380395 0.96196053 0.0260968 0.9739031500000001 0.0163658 0.98363418 0.0327316 0.96726836 0.07539029999999999 0.9246097 0.0648357 0.93516434 0.0444803 0.95551972 0.0278944 0.97210559 0.0557888 0.94421118 0.09301559 0.90698441 0.07999340000000001 0.92000659 0.0548792 0.9451208 0.0344158 0.96558423 0.0688315 0.93116846 0.11705642 0.88294358 0.1006685 0.89933148 0.06906329999999999 0.9309367200000001 0.0433109 0.95668913 0.0866217 0.9133782499999999 0.19951459 0.80048541 0.1715826 0.82841745 0.1177136 0.88228639 0.07382039999999999 0.9261796 0.1476408 0.8523592 0.24615856 0.75384144 0.2116964 0.78830363 0.1452336 0.85476645 0.0910787 0.90892133 0.1821573 0.8178426600000001 0.05716016 0.94283984 0.0491577 0.95084227 0.0337245 0.96627551 0.0211493 0.9788507400000001 0.0422985 0.95770148 0.09742555 0.90257445 0.083786 0.91621403 0.0574811 0.94251893 0.0360475 0.96395255 0.0720949 0.92790509 0.1202024 0.8797976 0.1033741 0.89662594 0.07091939999999999 0.92908058 0.0444749 0.95552511 0.0889498 0.91105022 0.02448239 0.97551761 0.0210549 0.97894514 0.0144446 0.98555539 0.009058500000000001 0.99094151 0.018117 0.98188303 0.04187151 0.95812849 0.0360095 0.9639905 0.0247042 0.97529581 0.0154925 0.98450754 0.0309849 0.96901508 0.07457646 0.92542354 0.06413580000000001 0.93586424 0.0440001 0.95599989 0.0275933 0.97240671 0.0551866 0.94481342 0.01417488 0.98582512 0.0121904 0.9878096 0.008363199999999999 0.99163682 0.0052447 0.99475529 0.0104894 0.98951059 0.02424288 0.97575712 0.0208489 0.97915112 0.0143033 0.9856967 0.008969899999999999 0.99103013 0.0179397 0.98206027 0.04317848 0.95682152 0.0371335 0.9628665 0.0254753 0.97452469 0.015976 0.98402396 0.0319521 0.96804792 0.06257386 0.93742614 0.0538135 0.9461864800000001 0.0369186 0.96308142 0.0231523 0.9768476699999999 0.0463047 0.95369534 0.10701822 0.8929817799999999 0.0920357 0.90796433 0.06314069999999999 0.93685925 0.0395967 0.96040326 0.0791935 0.92080652 0.19060788 0.80939212 0.1639228 0.83607722 0.1124587 0.88754135 0.0705249 0.92947508 0.1410498 0.85895017 0.03622919 0.96377081 0.0311571 0.9688429 0.0213752 0.97862478 0.0134048 0.9865952 0.0268096 0.9731904 0.0619617 0.9380383 0.0532871 0.9467129399999999 0.0365574 0.9634426 0.0229258 0.97707417 0.0458517 0.95414834 0.11035868 0.88964132 0.09490850000000001 0.90509154 0.06511160000000001 0.93488838 0.0408327 0.95916729 0.0816654 0.91833458 0.11619118 0.8838088200000001 0.0999244 0.90007559 0.0685528 0.9314472 0.0429907 0.95700926 0.0859815 0.91401853 0.19871832 0.80128168 0.1708978 0.82910224 0.1172438 0.8827561900000001 0.0735258 0.92647422 0.1470516 0.85294844 0.35393299 0.64606701 0.3043824 0.69561763 0.2088205 0.79117954 0.1309552 0.86904479 0.2619104 0.73808959 0.06727269 0.93272731 0.0578545 0.94214549 0.0396909 0.96030911 0.0248909 0.97510911 0.0497818 0.95021821 0.11505448 0.88494552 0.0989469 0.90105315 0.0678821 0.93211786 0.0425702 0.95742984 0.0851403 0.91485969 0.20492109 0.79507891 0.1762321 0.82376786 0.1209034 0.87909655 0.07582079999999999 0.9241792 0.1516416 0.84835839 0.04754413 0.95245587 0.040888 0.95911205 0.028051 0.97194896 0.0175913 0.98240867 0.0351827 0.96481734 0.0810357 0.9189643 0.06969069999999999 0.9303093 0.0478111 0.95218894 0.0299832 0.97001679 0.0599664 0.94003358 0.09998081 0.90001919 0.0859835 0.9140165 0.0589887 0.94101132 0.0369929 0.9630071 0.0739858 0.9260142 0.02321641 0.97678359 0.0199661 0.98003389 0.0136977 0.98630232 0.0085901 0.99140993 0.0171801 0.9828198500000001 0.03957078 0.96042922 0.0340309 0.96596913 0.0233468 0.97665324 0.0146412 0.98535881 0.0292824 0.97071763 0.04882192 0.95117808 0.0419869 0.95801315 0.0288049 0.97119507 0.0180641 0.98193589 0.0361282 0.96387178 0.09058115 0.90941885 0.07789980000000001 0.92210021 0.0534429 0.94655712 0.033515 0.96648497 0.0670301 0.93296995 0.15438933 0.84561067 0.1327748 0.86722517 0.0910897 0.90891029 0.0571241 0.94287595 0.1142481 0.88575189 0.19048359 0.80951641 0.1638159 0.83618411 0.1123853 0.88761468 0.0704789 0.9295210699999999 0.1409579 0.85904214 0.04423194 0.95576806 0.0380395 0.96196053 0.0260968 0.9739031500000001 0.0163658 0.98363418 0.0327316 0.96726836 0.07539029999999999 0.9246097 0.0648357 0.93516434 0.0444803 0.95551972 0.0278944 0.97210559 0.0557888 0.94421118 0.09301559 0.90698441 0.07999340000000001 0.92000659 0.0548792 0.9451208 0.0344158 0.96558423 0.0688315 0.93116846 0.11705642 0.88294358 0.1006685 0.89933148 0.06906329999999999 0.9309367200000001 0.0433109 0.95668913 0.0866217 0.9133782499999999 0.19951459 0.80048541 0.1715826 0.82841745 0.1177136 0.88228639 0.07382039999999999 0.9261796 0.1476408 0.8523592 0.24615856 0.75384144 0.2116964 0.78830363 0.1452336 0.85476645 0.0910787 0.90892133 0.1821573 0.8178426600000001 0.05716016 0.94283984 0.0491577 0.95084227 0.0337245 0.96627551 0.0211493 0.9788507400000001 0.0422985 0.95770148 0.09742555 0.90257445 0.083786 0.91621403 0.0574811 0.94251893 0.0360475 0.96395255 0.0720949 0.92790509 0.1202024 0.8797976 0.1033741 0.89662594 0.07091939999999999 0.92908058 0.0444749 0.95552511 0.0889498 0.91105022 0.04083055 0.95916945 0.0351143 0.9648857199999999 0.02409 0.97590997 0.0151073 0.9848927 0.0302146 0.96978539 0.05954801 0.94045199 0.0512113 0.94878871 0.0351333 0.96486668 0.0220328 0.97796724 0.0440655 0.95593447 0.08166111 0.91833889 0.0702286 0.9297714500000001 0.0481801 0.95181995 0.0302146 0.96978539 0.0604292 0.93957078 0.02793401 0.97206599 0.0240232 0.9759767499999999 0.0164811 0.98351893 0.0103356 0.98966442 0.0206712 0.97932883 0.04073946 0.9592605400000001 0.0350359 0.96496406 0.0240363 0.97596372 0.0150736 0.9849264 0.0301472 0.9698528 0.05586802 0.94413198 0.0480465 0.9519535 0.0329621 0.96703787 0.0206712 0.97932883 0.0413423 0.95865766 0.06671595 0.93328405 0.0573757 0.94262428 0.0393624 0.96063759 0.0246849 0.9753151 0.0493698 0.9506302 0.09729973 0.90270027 0.0836778 0.91632223 0.0574068 0.94259316 0.0360009 0.9639991 0.0720018 0.9279982 0.1334319 0.8665681 0.1147514 0.88524856 0.0787248 0.92127518 0.0493698 0.9506302 0.0987396 0.90126039 0.04564337 0.95435663 0.0392533 0.9607467 0.0269296 0.9730704100000001 0.016888 0.98311195 0.0337761 0.9662239 0.06656711 0.93343289 0.0572477 0.94275229 0.0392746 0.96072541 0.0246298 0.97537017 0.0492597 0.95074034 0.09128675 0.90871325 0.0785066 0.9214934 0.0538592 0.94614082 0.0337761 0.9662239 0.06755220000000001 0.93244781 0.10520217 0.89479783 0.0904739 0.90952614 0.0620693 0.93793072 0.0389248 0.9610752 0.0778496 0.9221504 0.15342872 0.84657128 0.1319487 0.8680513 0.0905229 0.9094770599999999 0.0567686 0.94323137 0.1135373 0.88646275 0.21040433 0.78959567 0.1809477 0.81905227 0.1241386 0.87586144 0.0778496 0.9221504 0.1556992 0.84430079 0.07197352 0.92802648 0.0618972 0.93810277 0.0424644 0.95753562 0.0266302 0.9733698 0.0532604 0.9467396 0.10496746 0.89503254 0.09027200000000001 0.90972798 0.0619308 0.9380692 0.038838 0.9611620400000001 0.07767590000000001 0.92232408 0.14394704 0.85605296 0.1237945 0.87620555 0.0849288 0.91507125 0.0532604 0.9467396 0.1065208 0.89347919 0 1 0 1 0 1 0 1 0 1 0 1 0 1 0 1 0 1 0 1 0 1 0 1 0 1 0 1 0 1 0 1 0 1 0 1 0 1 0 1 0 1 0 1 0 1 0 1 0 1 0 1 0 1 0 1 0 1 0 1 0 1 0 1 0 1 0 1 0 1 0 1 0 1 0 1 0 1 0 1 0 1 0 1 0 1 0 1 0 1 0 1 0 1 0 1 0 1 0 1 0 1 0 1 0 1 0 1 0 1 0 1 0 1 0 1 0 1 0 1 0 1 0 1 0 1 0 1 0 1 0 1 0 1 0 1 0 1 0 1 0 1 0 1 0 1 0 1 0 1 0 1 0 1 0 1 0 1 0 1 0 1 0 1 0 1 0 1 0 1 0 1 0 1 0 1 0 1 0 1 0 1 0 1 0 1 0 1 0 1 0 1 0 1 0 1 0 1 0 1 0 1 0 1 0 1 0 1 0 1 0 1 0 1 0 1 0 1 0 1 0 1 0 1 0 1 0 1 0 1 0 1 0 1 0 1 0 1 0 1 0 1 0 1 0 1 0 1 0 1 0 1 0 1 0 1 0 1 0 1 0 1 0 1 0 1 0 1 0 1 0 1 0 1 0 1 0 1 0 1 0 1 0 1 0 1 0 1 0 1 0 1 0 1 0 1 0 1 0 1 0 1 0 1 0 1 0 1 0 1 0 1 0 1 0 1 0 1 0 1 0 1 0 1 0 1 0 1 0 1 0 1 0 1 0 1 0 1 0 1 0 1 0 1 0 1 0 1 0 1 0 1 0 1 0 1 0 1 0 1 0 1 0 1 0 1 0 1 0 1 0 1 0 1 0 1 0 1 0 1 0 1 0 1 0 1 0 1 0 1 0 1 0 1 0 1 0 1 0 1 0 1 0 1 0 1 0 1 0 1 0 1 0 1 0 1 0 1 0 1 0 1 0 1 0 1 0 1 0 1 0 1 0 1 0 1 0 1 0 1 0 1 0 1 0 1 0 1 0 1 0 1 0 1 0 1 0 1 0 1 0 1 0 1 0 1 0 1 0 1 0 1 0 1 0 1 0 1 0 1 0 1 0 1 0 1 0 1 0 1 0 1 0 1 0 1 0 1 0 1 0 1 0 1 0 1 0 1 0 1 0 1 0 1 0 1 0 1 0 1 0 1 0 1 0 1 0 1 0 1 0 1 0 1 0 1 0 1 0 1 0 1 0 1 0 1 0 1 0 1 0 1 0 1 0 1 0 1 0 1 0 1 0 1 0 1 0 1 0 1 0 1 0 1 0 1 0 1 0 1 0 1 0 1 0 1 0 1 0 1 0 1 0 1 0 1 0 1 0 1 0 1 0 1 0 1 0 1 0 1 0 1 0 1 0 1 0 1 0 1 0 1 0 1 0 1 0 1 0 1 0 1 0 1 0 1 0 1 0 1 0 1 0 1 0 1 0 1 0 1 0 1 0 1 0 1 0 1 0 1 0 1 0 1 0 1 0 1 0 1 0 1 0 1 0 1 0 1 0 1 0 1 0 1 0 1 0 1 0 1 0 1 0 1 0 1 0 1 0 1 0 1 0 1 0 1 0 1 0 1 0 1 0 1 0 1 0 1 0 1 0 1 0 1 0 1 0 1 0 1 0 1 0 1 0 1 0 1 0 1 0 1 0 1 0 1 0 1 0 1 0 1 0 1 0 1 0 1 0 1 0 1 0 1 0 1 0 1 0 1 0 1 0 1 0 1 0 1 0 1 0 1 0 1 0 1 0 1 0 1 0 1 0 1 0 1 0 1 0 1 0 1 0 1 0 1 0 1 0 1 0 1 0 1 0 1 0 1 0 1 0 1 0 1 0 1 0 1 0 1 0 1 0 1 0 1 0 1 0 1 0 1 0 1 0 1 0 1 0 1 0 1 0 1 0 1 0 1 0 1 0 1 0 1 0 1 0 1 0 1 0 1 0 1 0 1 0 1 0 1 0 1 0 1 0 1 0 1 0 1 0 1 0 1 0 1 0 1 0 1 0 1 0 1 0 1 0 1 0 1 0 1 0 1 0 1 0 1 0 1 0 1 0 1 0 1 0 1 0 1 0 1 0 1 0 1 0 1 0 1 0 1 0 1 0 1 0 1 0 1 0 1 0 1 0 1 0 1 0 1 0 1 0 1 0 1 0 1 0 1 0 1 0 1 0 1 0 1 0 1 0 1 0 1 0 1 0 1 0 1 0 1 0 1 0 1 0 1 0 1 0 1 0 1 0 1 0 1 0 1 0 1 0 1 0 1 0 1 0 1 0 1 0 1 0 1 0 1 0 1 0 1 0 1 0 1 0 1 0 1 0 1 0 1 0 1 0 1 0 1 0 1 0 1 0 1 0 1 0 1 0 1 0 1 0 1 0 1 0 1 0 1 0 1 0 1 0 1 0 1 0 1 0 1 0 1 0 1 0 1 0 1 0 1 0 1 0 1 0 1 0 1 0 1 0 1 0 1 0 1 0 1 0 1 0 1 0 1 0 1 0 1 0 1 0 1 0 1 0 1 0 1 0 1 0 1 0 1 0 1 0 1 0 1 0 1 0 1 0 1 0 1 0 1 0 1 0 1 0 1 0 1 0 1 0 1 0 1 0 1 0 1 0 1 0 1 0 1 0 1 0 1 0 1 0 1 0 1 0 1 0 1 0 1 0 1 0 1 0 1 0 1 0 1 0 1 0 1 0 1 0 1 0 1 0 1 0 1 0 1 0 1 0 1 0 1 0 1 0 1 0 1 0 1 0 1 0 1 0 1 0 1 0 1 0 1 0 1 0 1 0 1 0 1 0 1 0 1 0 1 0 1 0 1 0 1 0 1 0 1 0 1 0 1 0 1 0 1 0 1 0 1 0 1 0 1 0 1 0 1 0 1 0 1 0 1 0 1 0 1 0 1 0 1 0 1 0 1 0 1 0 1 0 1 0 1 0 1 0 1 0 1 0 1 0 1 0 1 0 1 0 1 0 1 0 1 0 1 0 1 0 1 0 1 0 1 0 1 0 1 0 1 0 1 0 1 0 1 0 1 0 1 0 1 0 1 0 1 0 1 0 1 0 1 0 1 0 1 0 1 0 1 0 1 0 1 0 1 0 1 0 1 0 1 0 1 0 1 0 1 0 1 0 1 0 1 0 1 0 1 0 1 0 1 0 1 0 1 0 1 0 1 0 1 0 1 0 1 0 1 0 1 0 1 0 1 0 1 0 1 0 1 0 1 0 1 0 1 0 1 0 1 0 1 0 1 0 1 0 1 0 1 0 1 0 1 0 1 0 1 0 1 0 1 0 1 0 1 0 1 0 1 0 1 0 1 0 1 0 1 0 1 0 1 0 1 0 1 0 1 0 1 0 1 0 1 0 1 0 1 0 1 0 1 0 1 0 1 0 1 0 1 0 1 0 1 0 1 0 1 0 1 0 1 0 1 0 1 0 1 0 1 0 1 0 1 0 1 0 1 0 1 0 1 0 1 0 1 0 1 0 1 0 1 0 1 0 1 0 1 0 1 0 1 0 1 0 1 0 1 0 1 0 1 0 1 0 1 0 1 0 1 0 1 0 1 0 1 0 1 0 1 0 1 0 1 0 1 0 1 0 1 0 1 0 1 0 1 0 1 0 1 0 1 0 1 0 1 0 1 0 1 0 1 0 1 0 1 0 1 0 1 0 1 0 1 0 1 0 1 0 1 0 1 0 1 0 1 0 1 0 1 0 1 0 1 0 1 0 1 0 1 0 1 0 1 0 1 0 1 0 1 0 1 0 1 0 1 0 1 0 1 0 1 0 1 0 1 0 1 0 1 0 1 0 1 0 1 0 1 0 1 0 1 0 1 0 1 0 1 0 1 0 1 0 1 0 1 0 1 0 1 0 1 0 1 0 1 0 1 0 1 0 1 0 1 0 1 0 1 0 1 0 1 0 1 0 1 0 1 0 1 0 1 0 1 0 1 0 1 0 1 0 1 0 1 0 1 0 1 0 1 0 1 0 1 0 1 0 1 0 1 0 1 0 1 0 1 0 1 0 1 0 1 0 1 0 1 0 1 0 1 0 1 0 1 0 1 0 1 0 1 0 1 0 1 0 1 0 1 0 1 0 1 0 1 0 1 0 1 0 1 0 1 0 1 0 1 0 1 0 1 0 1 0 1 0 1 0 1 0 1 0 1 0 1 0 1 0 1 0 1 0 1 0 1 0 1 0 1 0 1 0 1 0 1 0 1 0 1 0 1 0 1 0 1 0 1 0 1 0 1 0 1 0 1 0 1 0 1 0 1 0 1 0 1 0 1 0 1 0 1 0 1 0 1 0 1 0 1 0 1 0 1 0 1 0 1 0 1 0 1 0 1 0 1 0 1 0 1 0 1 0 1 0 1 0 1 0 1 0 1 0 1 0 1 0 1 0 1 0 1 0 1 0 1 0 1 0 1 0 1 0 1 0 1 0 1 0 1 0 1 0 1 0 1 0 1 0 1 0 1 0 1 0 1 0 1 0 1 0 1 0 1 0 1 0 1 0 1 0 1 0 1 0 1 0 1 0 1 0 1 0 1 0 1 0 1 0 1 0 1 0 1 0 1 0 1 0 1 0 1 0 1 0 1 0 1 0 1 0 1 0 1 0 1 0 1 0 1 0 1 0 1 0 1 0 1 0 1 0 1 0 1 0 1 0 1 0 1 0 1 0 1 0 1 0 1 0 1 0 1 0 1 0 1 0 1 0 1 0 1 0 1 0 1 0 1 0 1 0 1 0 1 0 1 0 1 0 1 0 1 0 1 0 1 0 1 0 1 0 1 0 1 0 1 0 1 0 1 0 1 0 1 0 1 0 1 0 1 0 1 0 1 0 1 0 1 0 1 0 1 0 1 0 1 0 1 0 1 0 1 0 1 0 1 0 1 0 1 0 1 0 1 0 1 0 1 0 1 0 1 0 1 0 1 0 1 0 1 0 1 0 1 0 1 0 1 0 1 0 1 0 1 0 1 0 1 0 1 0 1 0 1 0 1 0 1 0 1 0 1 0 1 0 1 0 1 0 1 0 1 0 1 0 1 0 1 0 1 0 1 0 1 0 1 0 1 0 1 0 1 0 1 0 1 0 1 0 1 0 1 0 1 0 1 0 1 0 1 0 1 0 1 0 1 0 1 0 1 0 1 0 1 0 1 0 1 0 1 0 1 0 1 0 1 0 1 0 1 0 1 0 1 0 1 0 1 0 1 0 1 0 1 0 1 0 1 0 1 0 1 0 1 0 1 0 1 0 1 0 1 0 1 0 1 0 1 0 1 0 1 0 1 0 1 0 1 0 1 0 1 0 1 0 1 0 1 0 1 0 1 0 1 0 1 0 1 0 1 0 1 0 1 0 1 0 1 0 1 0 1 0 1 0 1 0 1 0 1 0 1 0 1 0 1 0 1 0 1 0 1 0 1 0 1 0 1 0 1 0 1 0 1 0 1 0 1 0 1 0 1 0 1 0 1 0 1 0 1 0 1 0 1 0 1 0 1 0 1 0 1 0 1 0 1 0 1 0 1 0 1 0 1 0 1 0 1 0 1 0 1 0 1 0 1 0 1 0 1 0 1 0 1 0 1 0 1 0 1 0 1 0 1 0 1 0 1 0 1 0 1 0 1 0 1 0 1 0 1 0 1 0 1 0 1 0 1 0 1 0 1 0 1 0 1 0 1 0 1 0 1 0 1 0 1 0 1 0 1 0 1 0 1 0 1 0 1 0 1 0 1 0 1 0 1 0 1 0 1 0 1 0 1 0 1 0 1 0 1 0 1 0 1 0 1 0 1 0 1 0 1 0 1 0 1 0 1 0 1 0 1 0 1 0 1 0 1 0 1 0 1 0 1 0 1 0 1 0 1 0 1 0 1 0 1 0 1 0 1 0 1 0 1 0 1 0 1 0 1 0 1 0 1 0 1 0 1 0 1 0 1 0 1 0 1 0 1 0 1 0 1 0 1 0 1 0 1 0 1 0 1 0 1 0 1 0 1 0 1 0 1 0 1 0 1 0 1 0 1 0 1 0 1 0 1 0 1 0 1 0 1 0 1 0 1 0 1 0 1 0 1 0 1 0 1 0 1 0 1 0 1 0 1 0 1 0 1 0 1 0 1 0 1 0 1 0 1 0 1 0 1 0 1 0 1 0 1 0 1 0 1 0 1 0 1 0 1 0 1 0 1 0 1 0 1 0 1 0 1 0 1 0 1 0 1 0 1 0 1 0 1 0 1 0 1 0 1 0 1 0 1 0 1 0 1 0 1 0 1 0 1 0 1 0 1 0 1 0 1 0 1 0 1 0 1 0 1 0 1 0 1 0 1 0 1 0 1 0 1 0 1 0 1 0 1 0 1 0 1 0 1 0 1 0 1 0 1 0 1 0 1 0 1 0 1 0 1 0 1 0 1 0 1 0 1 0 1 0 1 0 1 0 1 0 1 0 1 0 1 0 1 0 1 0 1 0 1 0 1 0 1 0 1 0 1 0 1 0 1 0 1 0 1 0 1 0 1 0 1 0 1 0 1 0 1 0 1 0 1 0 1 0 1 0 1 0 1 0 1 0 1 0 1 0 1 0 1 0 1 0 1 0 1 0 1 0 1 0 1 0 1 0 1 0 1 0 1 0 1 0 1 0 1 0 1 0 1 0 1 0 1 0 1 0 1 0 1 0 1 0 1 0 1 0 1 0 1 0 1 0 1 0 1 0 1 0 1 0 1 0 1 0 1 0 1 0 1 0 1 0 1 0 1 0 1 0 1 0 1 0 1 0 1 0 1 0 1 0 1 0 1 0 1 0 1 0 1 0 1 0 1 0 1 0 1 0 1 0 1 0 1 0 1 0 1 0 1 0 1 0 1 0 1 0 1 0 1 0 1 0 1 0 1 0 1 0 1 0 1 0 1 0 1 0 1 0 1 0 1 0 1 0 1 0 1 0 1 0 1 0 1 0 1 0 1 0 1 0 1 0 1 0 1 0 1 0 1 0 1 0 1 0 1 0 1 0 1 0 1 0 1 0 1 0 1 0 1 0 1 0 1 0 1 0 1 0 1 0 1 0 1 0 1 0 1 0 1 0 1 0 1 0 1 0 1 0 1 0 1 0 1 0 1 0 1 0 1 0 1 0 1 0 1 0 1 0 1 0 1 0 1 0 1 0 1 0 1 0 1 0 1 0 1 0 1 0 1 0 1 0 1 0 1 0 1 0 1 0 1 0 1 0 1 0 1 0 1 0 1 0 1 0 1 0 1 0 1 0 1 0 1 0 1 0 1 0 1 0 1 0 1 0 1 0 1 0 1 0 1 0 1 0 1 0 1 0 1 0 1 0 1 0 1 0 1 0 1 0 1 0 1 0 1 0 1 0 1 0 1 0 1 0 1 0 1 0 1 0 1 0 1 0 1 0 1 0 1 0 1 0 1 0 1 0 1 0 1 0 1 0 1 0 1 0 1 0 1 0 1 0 1 0 1 0 1 0 1 0 1 0 1 0 1 0 1 0 1 0 1 0 1 0 1 0 1 0 1 0 1 0 1 0 1 0 1 0 1 0 1 0 1 0 1 0 1 0 1 0 1 0 1 0 1 0 1 0 1 0 1 0 1 0 1 0 1 0 1 0 1 0 1 0 1 0 1 0 1 0 1 0 1 0 1 0 1 0 1 0 1 0 1 0 1 0 1 0 1 0 1 0 1 0 1 0 1 0 1 0 1 0 1 0 1 0 1 0 1 0 1 0 1 0 1 0 1 0 1 0 1 0 1 0 1 0 1 0 1 0 1 0 1 0 1 0 1 0 1 0 1 0 1 0 1 0 1 0 1 0 1 0 1 0 1 0 1 0 1 0 1 0 1 0 1 0 1 0 1 0 1 0 1 0 1 0 1 0 1 0 1 0 1 0 1 0 1 0 1 0 1 0 1 0 1 0 1 0 1 0 1 0 1 0 1 0 1 0 1 0 1 0 1 0 1 0 1 0 1 0 1 0 1 0 1 0 1 0 1 0 1 0 1 0 1 0 1 0 1 0 1 0 1 0 1 0 1 0 1 0 1 0 1 0 1 0 1 0 1 0 1 0 1 0 1 0 1 0 1 0 1 0 1 0 1 0 1 0 1 0 1 0 1 0 1 0 1 0 1 0 1 0 1 0 1 0 1 0 1 0 1 0 1 0 1 0 1 0 1 0 1 0 1 0 1 0 1 0 1 0 1 0 1 0 1 0 1 0 1 0 1 0 1 0 1 0 1 0 1 0 1 0 1 0 1 0 1 0 1 0 1 0 1 0 1 0 1 0 1 0 1 0 1 0 1 0 1 0 1 0 1 0 1 0 1 0 1 0 1 0 1 0 1 0 1 0 1 0 1 0 1 0 1 0 1 0 1 0 1 0 1 0 1 0 1 0 1 0 1 0 1 0 1 0 1 0 1 0 1 0 1 0 1 0 1 0 1 0 1 0 1 0 1 0 1 0 1 0 1 0 1 0 1 0 1 0 1 0 1 0 1 0 1 0 1 0 1 0 1 0 1 0 1 0 1 0 1 0 1 0 1 0 1 0 1 0 1 0 1 0 1 0 1 0 1 0 1 0 1 0 1 0 1 0 1 0 1 0 1 0 1 0 1 0 1 0 1 0 1 0 1 0 1 0 1 0 1 0 1 0 1 0 1 0 1 0 1 0 1 0 1 0 1 0 1 0 1 0 1 0 1 0 1 0 1 0 1 0 1 0 1 0 1 0 1 0 1 0 1 0 1 0 1 0 1 0 1 0 1 0 1 0 1 0 1 0 1 0 1 0 1 0 1 0 1 0 1 0 1 0 1 0 1 0 1 0 1 0 1 0 1 0 1 0 1 0 1 0 1 0 1 0 1 0 1 0 1 0 1 0 1 0 1 0 1 0 1 0 1 0 1 0 1 0 1 0 1 0 1 0 1 0 1 0 1 0 1 0 1 0 1 0 1 0 1 0 1 0 1 0 1 0 1 0 1 0 1 0 1 0 1 0 1 0 1 0 1 0 1 0 1 0 1 0 1 0 1 0 1 0 1 0 1 0 1 0 1 0 1 0 1 0 1 0 1 0 1 0 1 0 1 0 1 0 1 0 1 0 1 0 1 0 1 0 1 0 1 0 1 0 1 0 1 0 1 0 1 0 1 0 1 0 1 0 1 0 1 0 1 0 1 0 1 0 1 0 1 0 1 0 1 0 1 0 1 0 1 0 1 0 1 0 1 0 1 0 1 0 1 0 1 0 1 0 1 0 1 0 1 0 1 0 1 0 1 0 1 0 1 0 1 0 1 0 1 0 1 0 1 0 1 0 1 0 1 0 1 0 1 0 1 0 1 0 1 0 1 0 1 0 1 0 1 0 1 0 1 0 1 0 1 0 1 0 1 0 1 0 1 0 1 0 1 0 1 0 1 0 1 0 1 0 1 0 1 0 1 0 1 0 1 0 1 0 1 0 1 0 1 0 1 0 1 0 1 0 1 0 1 0 1 0 1 0 1 0 1 0 1 0 1 0 1 0 1 0 1 0 1 0 1 0 1 0 1 0 1 0 1 0 1 0 1 0 1 0 1 0 1 0 1 0 1 0 1 0 1 0 1 0 1 0 1 0 1 0 1 0 1 0 1 0 1 0 1 0 1 0 1 0 1 0 1 0 1 0 1 0 1 0 1 0 1 0 1 0 1 0 1 0 1</probabilities>
		</cpt>
		<cpt id="n15_LC_cardiovascular">
			<state id="Yes" />
			<state id="No" />
			<parents>n1_Infection n3_Vaxstat n8_NoOfPrevInfect n11_Hospitalisation n12_ICU n4_Age n5_Sex n6_ComorbidityNo n7_Drug</parents>
			<probabilities>0.07563433 0.92436567 0.06504553 0.93495447 0.04462426 0.95537574 0.0279847 0.9720153 0.05596941 0.94403059 0.10312727 0.89687273 0.08868946 0.91131054 0.06084509 0.93915491 0.03815709 0.96184291 0.07631418 0.92368582 0.10532137 0.89467863 0.0905764 0.90942362 0.0621396 0.93786039 0.0389689 0.96103109 0.0779378 0.92206218 0.04050531 0.95949469 0.0348346 0.96516544 0.0238981 0.97610187 0.014987 0.98501304 0.0299739 0.97002607 0.05522891 0.94477109 0.0474969 0.95250314 0.0325851 0.9674149399999999 0.0204347 0.9795653 0.0408694 0.9591306000000001 0.05640394 0.94359606 0.0485074 0.95149261 0.0332783 0.96672167 0.0208695 0.97913054 0.0417389 0.95826108 0.09984118 0.90015882 0.08586340000000001 0.91413658 0.0589063 0.9410937 0.0369412 0.96305876 0.0738825 0.92611753 0.13613327 0.86386673 0.1170746 0.88292539 0.0803186 0.9196813700000001 0.0503693 0.94963069 0.1007386 0.89926138 0.13902959 0.86097041 0.1195654 0.88043455 0.0820275 0.9179725399999999 0.0514409 0.94855905 0.1028819 0.8971181 0.05346907 0.94653093 0.0459834 0.9540166 0.0315468 0.96845325 0.0197836 0.98021644 0.0395671 0.96043289 0.07290497999999999 0.92709502 0.0626983 0.93730171 0.0430139 0.95698606 0.0269748 0.9730251599999999 0.0539497 0.9460503099999999 0.07445607999999999 0.92554392 0.0640322 0.93596777 0.0439291 0.95607091 0.0275488 0.97245125 0.0550975 0.9449025 0.12249287 0.87750713 0.1053439 0.89465613 0.0722708 0.92772921 0.0453224 0.95467764 0.09064469999999999 0.90935528 0.1670188 0.8329812 0.1436362 0.85636383 0.09854110000000001 0.90145891 0.061797 0.93820304 0.1235939 0.87640609 0.17057224 0.82942776 0.1466921 0.85330788 0.1006376 0.89936238 0.06311170000000001 0.93688827 0.1262235 0.87377655 0.06559999 0.9344000099999999 0.056416 0.94358401 0.038704 0.96129601 0.024272 0.975728 0.048544 0.95145601 0.08944546 0.91055454 0.07692309999999999 0.9230769 0.0527728 0.9472271799999999 0.0330948 0.96690518 0.0661896 0.93381036 0.09134847 0.90865153 0.0785597 0.92144031 0.0538956 0.9461044 0.0337989 0.9662010599999999 0.0675979 0.9324021300000001 0.06829924 0.93170076 0.0587373 0.94126266 0.0402966 0.95970345 0.0252707 0.97472928 0.0505414 0.94945856 0.09502876 0.90497124 0.0817247 0.91827527 0.056067 0.94393303 0.0351606 0.96483936 0.0703213 0.92967872 0.11728048 0.88271952 0.1008612 0.89913879 0.06919549999999999 0.93080452 0.0433938 0.95660622 0.08678760000000001 0.91321245 0.06032273 0.93967727 0.0518776 0.9481224499999999 0.0355904 0.96440959 0.0223194 0.97768059 0.0446388 0.95536118 0.08393058 0.91606942 0.0721803 0.9278197 0.049519 0.95048096 0.0310543 0.96894569 0.0621086 0.93789137 0.10358357 0.89641643 0.08908190000000001 0.91091813 0.0611143 0.93888569 0.0383259 0.96167408 0.07665180000000001 0.92334815 0.08889619 0.91110381 0.0764507 0.92354928 0.0524487 0.94755125 0.0328916 0.96710841 0.0657832 0.9342168199999999 0.1236865 0.8763135 0.1063704 0.89362961 0.072975 0.92702496 0.045764 0.95423599 0.091528 0.90847199 0.15264866 0.84735134 0.1312778 0.86872215 0.0900627 0.90993729 0.05648 0.94351999 0.11296 0.88703999 0.07851421 0.92148579 0.0675222 0.93247778 0.0463234 0.95367661 0.0290503 0.97094974 0.0581005 0.94189948 0.10924145 0.89075855 0.0939477 0.90605235 0.0644525 0.93554754 0.0404193 0.95958066 0.0808387 0.9191613199999999 0.13482119 0.86517881 0.1159462 0.88405377 0.0795445 0.9204555 0.0498838 0.95011616 0.0997677 0.90023232 0.10415158 0.89584842 0.08957039999999999 0.91042964 0.0614494 0.93855057 0.0385361 0.96146391 0.07707219999999999 0.92292783 0.14491224 0.85508776 0.1246245 0.87537547 0.0854982 0.91450178 0.0536175 0.94638247 0.1072351 0.89276494 0.17884457 0.82115543 0.1538063 0.84619367 0.1055183 0.8944817 0.0661725 0.93382751 0.132345 0.8676550200000001 0.09198797 0.90801203 0.07910970000000001 0.92089035 0.0542729 0.9457271 0.0340355 0.96596445 0.0680711 0.9319288999999999 0.12798829 0.87201171 0.1100699 0.88993007 0.0755131 0.9244869100000001 0.0473557 0.95264433 0.0947113 0.90528867 0.15795774 0.84204226 0.1358437 0.86415634 0.0931951 0.90680493 0.0584444 0.94155564 0.1168887 0.88311127 0.07563433 0.92436567 0.06504550000000001 0.93495447 0.0446243 0.95537574 0.0279847 0.9720153 0.0559694 0.94403059 0.10312727 0.89687273 0.0886895 0.91131054 0.0608451 0.93915491 0.0381571 0.96184291 0.0763142 0.92368582 0.10532137 0.89467863 0.0905764 0.90942362 0.0621396 0.93786039 0.0389689 0.96103109 0.0779378 0.92206218 0.04050531 0.95949469 0.0348346 0.96516544 0.0238981 0.97610187 0.014987 0.98501304 0.0299739 0.97002607 0.05522891 0.94477109 0.0474969 0.95250314 0.0325851 0.9674149399999999 0.0204347 0.9795653 0.0408694 0.9591306000000001 0.05640394 0.94359606 0.0485074 0.95149261 0.0332783 0.96672167 0.0208695 0.97913054 0.0417389 0.95826108 0.09984118 0.90015882 0.08586340000000001 0.91413658 0.0589063 0.9410937 0.0369412 0.96305876 0.0738825 0.92611753 0.13613327 0.86386673 0.1170746 0.88292539 0.0803186 0.9196813700000001 0.0503693 0.94963069 0.1007386 0.89926138 0.13902959 0.86097041 0.1195654 0.88043455 0.0820275 0.9179725399999999 0.0514409 0.94855905 0.1028819 0.8971181 0.05346907 0.94653093 0.0459834 0.9540166 0.0315468 0.96845325 0.0197836 0.98021644 0.0395671 0.96043289 0.07290497999999999 0.92709502 0.0626983 0.93730171 0.0430139 0.95698606 0.0269748 0.9730251599999999 0.0539497 0.9460503099999999 0.07445607999999999 0.92554392 0.0640322 0.93596777 0.0439291 0.95607091 0.0275488 0.97245125 0.0550975 0.9449025 0.12249287 0.87750713 0.1053439 0.89465613 0.0722708 0.92772921 0.0453224 0.95467764 0.09064469999999999 0.90935528 0.1670188 0.8329812 0.1436362 0.85636383 0.09854110000000001 0.90145891 0.061797 0.93820304 0.1235939 0.87640609 0.17057224 0.82942776 0.1466921 0.85330788 0.1006376 0.89936238 0.06311170000000001 0.93688827 0.1262235 0.87377655 0.06559999 0.9344000099999999 0.056416 0.94358401 0.038704 0.96129601 0.024272 0.975728 0.048544 0.95145601 0.08944546 0.91055454 0.07692309999999999 0.9230769 0.0527728 0.9472271799999999 0.0330948 0.96690518 0.0661896 0.93381036 0.09134847 0.90865153 0.0785597 0.92144031 0.0538956 0.9461044 0.0337989 0.9662010599999999 0.0675979 0.9324021300000001 0.08711951 0.91288049 0.0749228 0.92507722 0.0514005 0.94859949 0.0322342 0.96776578 0.0644684 0.93553156 0.09011073999999999 0.90988926 0.0774952 0.92250476 0.0531653 0.9468346600000001 0.033341 0.96665903 0.0666819 0.93331805 0.07606859000000001 0.92393141 0.065419 0.93458102 0.0448805 0.95511953 0.0281454 0.97185462 0.0562908 0.9437092500000001 0.11261447 0.88738553 0.0968484 0.90315156 0.0664425 0.93355746 0.0416674 0.95833265 0.0833347 0.91666529 0.11648106 0.88351894 0.1001737 0.89982629 0.0687238 0.93127617 0.043098 0.95690201 0.08619599999999999 0.91380401 0.09832956 0.90167044 0.0845634 0.9154365800000001 0.0580144 0.94198556 0.0363819 0.9636180600000001 0.07276390000000001 0.92723612 0.07967812000000001 0.92032188 0.06852320000000001 0.93147682 0.0470101 0.95298991 0.0294809 0.9705191 0.0589618 0.94103819 0.08241385 0.91758615 0.07087590000000001 0.92912409 0.0486242 0.95137583 0.0304931 0.96950688 0.0609862 0.93901375 0.06957112 0.93042888 0.0598312 0.94016884 0.041047 0.95895304 0.0257413 0.97425869 0.0514826 0.94851737 0.10299541 0.89700459 0.088576 0.91142395 0.0607673 0.93923271 0.0381083 0.9618917 0.0762166 0.9237834 0.10653173 0.89346827 0.0916173 0.90838271 0.0628537 0.93714628 0.0394167 0.96058326 0.0788335 0.92116652 0.08993066 0.9100693399999999 0.0773404 0.92265964 0.0530591 0.94694091 0.0332743 0.96672566 0.0665487 0.93345131 0.07265917 0.92734083 0.0624869 0.93751312 0.0428689 0.95713109 0.0268839 0.97311611 0.0537678 0.94623222 0.0751539 0.9248461 0.06463240000000001 0.9353676399999999 0.0443408 0.9556592 0.0278069 0.9721930600000001 0.0556139 0.9443861099999999 0.06344250999999999 0.93655749 0.0545606 0.94543944 0.0374311 0.9625689200000001 0.0234737 0.97652627 0.0469475 0.95305255 0.0939224 0.9060776 0.08077330000000001 0.91922674 0.0554142 0.94458578 0.0347513 0.96524871 0.0695026 0.93049742 0.0971472 0.9028528 0.0835466 0.9164534 0.0573169 0.94268315 0.0359445 0.96405553 0.07188890000000001 0.92811107 0.08200854 0.91799146 0.0705273 0.92947265 0.048385 0.95161496 0.0303432 0.96965684 0.0606863 0.93931368 0.1588321 0.8411679 0.1365956 0.86340439 0.0937109 0.90628906 0.0587679 0.94123212 0.1175358 0.88246425 0.21656727 0.78343273 0.1862479 0.81375214 0.1277747 0.87222531 0.0801299 0.91987011 0.1602598 0.83974022 0.22117488 0.77882512 0.1902104 0.8097896 0.1304932 0.86950682 0.0818347 0.91816529 0.1636694 0.83633059 0.08506115 0.91493885 0.0731526 0.92684741 0.0501861 0.94981392 0.0314726 0.96852738 0.06294520000000001 0.93705475 0.11598072 0.88401928 0.0997434 0.90025658 0.06842860000000001 0.9315713799999999 0.0429129 0.9570871399999999 0.0858257 0.91417427 0.11844828 0.88155172 0.1018655 0.89813448 0.0698845 0.93011551 0.0438259 0.95617414 0.0876517 0.91234827 0.20966648 0.79033352 0.1803132 0.81968683 0.1237032 0.87629678 0.0775766 0.9224234 0.1551532 0.8448468 0.28587986 0.71412014 0.2458567 0.75414332 0.1686691 0.83133088 0.1057755 0.8942244499999999 0.2115511 0.7884489 0.29196214 0.70803786 0.2510874 0.7489125599999999 0.1722577 0.82774234 0.108026 0.89197401 0.216052 0.78394802 0.11228506 0.88771494 0.0965651 0.90343485 0.06624819999999999 0.93375182 0.0415455 0.95845453 0.0830909 0.9169090600000001 0.15310047 0.84689953 0.1316664 0.8683336 0.0903293 0.90967073 0.0566472 0.94335283 0.1132943 0.88670566 0.15635778 0.84364222 0.1344677 0.86553231 0.0922511 0.90774891 0.0578524 0.94214762 0.1157048 0.88429525 0.25723503 0.74276497 0.2212221 0.77877788 0.1517687 0.84823133 0.095177 0.90482304 0.1903539 0.80964608 0.35073948 0.64926052 0.301636 0.69836404 0.2069363 0.7930637 0.1297736 0.87022639 0.2595472 0.74045278 0.35820169 0.64179831 0.3080535 0.69194654 0.211339 0.7886609999999999 0.1325346 0.86746537 0.2650693 0.73493075 0.13775998 0.86224002 0.1184736 0.88152642 0.0812784 0.91872161 0.0509712 0.9490288099999999 0.1019424 0.89805762 0.18783547 0.81216453 0.1615385 0.83846149 0.1108229 0.88917707 0.06949909999999999 0.93050088 0.1389982 0.86100175 0.19183179 0.8081682100000001 0.1649753 0.83502466 0.1131808 0.88681924 0.07097779999999999 0.92902224 0.1419555 0.8580444699999999 0.1434284 0.8565716 0.1233484 0.87665158 0.0846228 0.91537724 0.0530685 0.94693149 0.106137 0.89386298 0.19956039 0.80043961 0.1716219 0.82837807 0.1177406 0.88225937 0.07383729999999999 0.92616266 0.1476747 0.85232531 0.24628901 0.75371099 0.2118085 0.78819145 0.1453105 0.8546894900000001 0.0911269 0.9088730699999999 0.1822539 0.81774613 0.12667774 0.87332226 0.1089429 0.89105714 0.0747399 0.92526013 0.0468708 0.95312924 0.09374150000000001 0.90625847 0.17625421 0.82374579 0.1515786 0.84842138 0.10399 0.89601002 0.0652141 0.93478594 0.1304281 0.86957188 0.21752551 0.78247449 0.1870719 0.81292806 0.12834 0.87165995 0.0804844 0.91951556 0.1609689 0.83903113 0.18668199 0.81331801 0.1605465 0.83945349 0.1101424 0.88985763 0.0690723 0.93092766 0.1381447 0.86185533 0.25974166 0.74025834 0.2233778 0.77662217 0.1532476 0.84675242 0.09610440000000001 0.90389559 0.1922088 0.80779117 0.32056219 0.67943781 0.2756835 0.72431652 0.1891317 0.81086831 0.118608 0.88139199 0.237216 0.76278398 0.16487985 0.83512015 0.1417967 0.85820333 0.09727909999999999 0.90272089 0.0610055 0.93899446 0.1220111 0.87798891 0.22940706 0.77059294 0.1972901 0.80270993 0.1353502 0.86464984 0.0848806 0.91511939 0.1697612 0.83023878 0.2831245 0.7168755 0.2434871 0.75651293 0.1670435 0.83295654 0.1047561 0.89524393 0.2095121 0.79048787 0.21871833 0.78128167 0.1880978 0.81190224 0.1290438 0.87095619 0.08092580000000001 0.9190742200000001 0.1618516 0.83814844 0.3043157 0.6956843 0.2617115 0.7382885 0.1795463 0.82045374 0.1125968 0.88740319 0.2251936 0.77480638 0.37557359 0.62442641 0.3229933 0.67700671 0.2215884 0.77841158 0.1389622 0.86103777 0.2779245 0.72207554 0.19317474 0.80682526 0.1661303 0.83386972 0.1139731 0.8860269 0.0714747 0.92852535 0.1429493 0.85705069 0.2687754 0.7312246 0.2311468 0.76885315 0.1585775 0.84142251 0.0994469 0.9005531 0.1988938 0.8011062 0.33171126 0.66828874 0.2852717 0.71472832 0.1957096 0.80429036 0.1227332 0.87726684 0.2454663 0.75453367 0.1588321 0.8411679 0.1365956 0.86340439 0.0937109 0.90628906 0.0587679 0.94123212 0.1175358 0.88246425 0.21656727 0.78343273 0.1862479 0.81375214 0.1277747 0.87222531 0.0801299 0.91987011 0.1602598 0.83974022 0.22117488 0.77882512 0.1902104 0.8097896 0.1304932 0.86950682 0.0818347 0.91816529 0.1636694 0.83633059 0.08506115 0.91493885 0.0731526 0.92684741 0.0501861 0.94981392 0.0314726 0.96852738 0.06294520000000001 0.93705475 0.11598072 0.88401928 0.0997434 0.90025658 0.06842860000000001 0.9315713799999999 0.0429129 0.9570871399999999 0.0858257 0.91417427 0.11844828 0.88155172 0.1018655 0.89813448 0.0698845 0.93011551 0.0438259 0.95617414 0.0876517 0.91234827 0.20966648 0.79033352 0.1803132 0.81968683 0.1237032 0.87629678 0.0775766 0.9224234 0.1551532 0.8448468 0.28587986 0.71412014 0.2458567 0.75414332 0.1686691 0.83133088 0.1057755 0.8942244499999999 0.2115511 0.7884489 0.29196214 0.70803786 0.2510874 0.7489125599999999 0.1722577 0.82774234 0.108026 0.89197401 0.216052 0.78394802 0.11228506 0.88771494 0.0965651 0.90343485 0.06624819999999999 0.93375182 0.0415455 0.95845453 0.0830909 0.9169090600000001 0.15310047 0.84689953 0.1316664 0.8683336 0.0903293 0.90967073 0.0566472 0.94335283 0.1132943 0.88670566 0.15635778 0.84364222 0.1344677 0.86553231 0.0922511 0.90774891 0.0578524 0.94214762 0.1157048 0.88429525 0.25723503 0.74276497 0.2212221 0.77877788 0.1517687 0.84823133 0.095177 0.90482304 0.1903539 0.80964608 0.35073948 0.64926052 0.301636 0.69836404 0.2069363 0.7930637 0.1297736 0.87022639 0.2595472 0.74045278 0.35820169 0.64179831 0.3080535 0.69194654 0.211339 0.7886609999999999 0.1325346 0.86746537 0.2650693 0.73493075 0.13775998 0.86224002 0.1184736 0.88152642 0.0812784 0.91872161 0.0509712 0.9490288099999999 0.1019424 0.89805762 0.18783547 0.81216453 0.1615385 0.83846149 0.1108229 0.88917707 0.06949909999999999 0.93050088 0.1389982 0.86100175 0.19183179 0.8081682100000001 0.1649753 0.83502466 0.1131808 0.88681924 0.07097779999999999 0.92902224 0.1419555 0.8580444699999999 0.18295098 0.81704902 0.1573378 0.84266216 0.1079411 0.89205892 0.0676919 0.93230814 0.1353837 0.86461628 0.18923255 0.8107674499999999 0.16274 0.83726 0.1116472 0.88835279 0.07001599999999999 0.92998395 0.1400321 0.8599679099999999 0.15974403 0.84025597 0.1373799 0.86262013 0.094249 0.90575102 0.0591053 0.94089471 0.1182106 0.88178942 0.23649039 0.7635096099999999 0.2033817 0.79661827 0.1395293 0.86047067 0.08750139999999999 0.91249856 0.1750029 0.82499711 0.24461023 0.75538977 0.2103648 0.7896352 0.14432 0.85567996 0.0905058 0.90949422 0.1810116 0.81898843 0.20649208 0.79350792 0.1775832 0.82241681 0.1218303 0.87816967 0.0764021 0.92359793 0.1528041 0.84719586 0.16732406 0.83267594 0.1438987 0.85610131 0.0987212 0.90127881 0.0619099 0.9380901 0.1238198 0.8761802 0.17306909 0.82693091 0.1488394 0.85116059 0.1021108 0.89788924 0.0640356 0.93596444 0.1280711 0.87192888 0.14609935 0.85390065 0.1256454 0.87435456 0.0861986 0.91380138 0.0540568 0.94594324 0.1081135 0.89188648 0.21629035 0.78370965 0.1860097 0.8139903000000001 0.1276113 0.87238869 0.0800274 0.91997257 0.1600549 0.83994514 0.22371663 0.77628337 0.1923963 0.8076037 0.1319928 0.86800719 0.08277519999999999 0.91722485 0.1655503 0.83444969 0.18885438 0.81114562 0.1624148 0.83758523 0.1114241 0.88857592 0.0698761 0.93012388 0.1397522 0.86024776 0.15258425 0.84741575 0.1312225 0.86877754 0.0900247 0.90997529 0.0564562 0.94354383 0.1129123 0.88708765 0.1578232 0.8421767999999999 0.1357279 0.86427205 0.0931157 0.90688431 0.0583946 0.94160542 0.1167892 0.88321083 0.13322926 0.86677074 0.1145772 0.88542283 0.0786053 0.9213947300000001 0.0492948 0.95070517 0.0985897 0.90141034 0.19723704 0.80276296 0.1696239 0.83037614 0.1163699 0.88363015 0.07297770000000001 0.92702229 0.1459554 0.85404459 0.20400913 0.79599087 0.1754479 0.82455215 0.1203654 0.87963461 0.07548340000000001 0.92451662 0.1509668 0.84903325 0.17221794 0.82778206 0.1481074 0.85189257 0.1016086 0.89839141 0.0637206 0.93627936 0.1274413 0.87255872 0.2548877 0.7451122999999999 0.2192034 0.78079657 0.1503837 0.84961625 0.0943085 0.90569155 0.1886169 0.8113831 0.34753891 0.65246109 0.2988835 0.70111654 0.205048 0.79495204 0.1285894 0.8714106 0.2571788 0.7428212 0.35493303 0.64506697 0.3052424 0.6947576 0.2094105 0.79058951 0.1313252 0.86867478 0.2626504 0.73734956 0.13650289 0.86349711 0.1173925 0.88260752 0.0805367 0.9194633 0.0505061 0.94949393 0.1010121 0.89898786 0.18612143 0.81387857 0.1600644 0.83993557 0.1098116 0.89018835 0.06886490000000001 0.93113507 0.1377299 0.86227014 0.19008129 0.80991871 0.1634699 0.83653009 0.112148 0.88785204 0.07033010000000001 0.92966992 0.1406602 0.85933985 0.33646478 0.66353522 0.2893597 0.71064029 0.1985142 0.80148578 0.124492 0.87550803 0.2489839 0.75101606 0.45876911 0.54123089 0.3945414 0.60545857 0.2706738 0.72932623 0.1697446 0.83025543 0.3394891 0.66051086 0.46852972 0.53147028 0.4029356 0.59706444 0.2764325 0.72356747 0.173356 0.82664401 0.346712 0.65328801 0.18019078 0.81980922 0.1549641 0.84503593 0.1063126 0.89368744 0.0666706 0.93332941 0.1333412 0.8666588200000001 0.24568979 0.75431021 0.2112932 0.7887067800000001 0.144957 0.85504302 0.09090520000000001 0.90909478 0.1818104 0.81818955 0.250917 0.7490830000000001 0.2157886 0.78421138 0.148041 0.85195897 0.0928393 0.90716071 0.1856786 0.81432142 0.41280097 0.58719903 0.3550088 0.64499116 0.2435526 0.75644742 0.1527364 0.84726364 0.3054727 0.69452728 0.56285336 0.43714664 0.4840539 0.51594611 0.3320835 0.66791652 0.2082557 0.79174426 0.4165115 0.58348851 0.5748284299999999 0.42517157 0.4943525 0.5056475499999999 0.3391488 0.66085122 0.2126865 0.78731348 0.425373 0.57462696 0.22107196 0.77892804 0.1901219 0.80987811 0.1304325 0.86956754 0.0817966 0.91820337 0.1635933 0.83640675 0.30143121 0.6985687900000001 0.2592308 0.74076916 0.1778444 0.82215559 0.1115295 0.88847045 0.2230591 0.7769409 0.30784435 0.69215565 0.2647461 0.73525385 0.1816282 0.81837183 0.1139024 0.88609759 0.2278048 0.77219518 0.23016843 0.76983157 0.1979449 0.80205515 0.1357994 0.86420063 0.0851623 0.91483768 0.1703246 0.82967536 0.32024691 0.6797530899999999 0.2754123 0.72458766 0.1889457 0.81105432 0.1184914 0.88150864 0.2369827 0.76301729 0.39523522 0.60476478 0.3399023 0.6600977099999999 0.2331888 0.76681122 0.146237 0.85376297 0.2924741 0.70752594 0.20328761 0.79671239 0.1748273 0.82517265 0.1199397 0.88006031 0.0752164 0.92478358 0.1504328 0.84956717 0.28284604 0.71715396 0.2432476 0.7567524 0.1668792 0.83312084 0.104653 0.89534696 0.2093061 0.79069393 0.34907665 0.65092335 0.3002059 0.69979408 0.2059552 0.79404478 0.1291584 0.87084164 0.2583167 0.7416832799999999 0.29958015 0.70041985 0.2576389 0.74236107 0.1767523 0.82324771 0.1108447 0.88915535 0.2216893 0.77831069 0.41682352 0.58317648 0.3584682 0.6415317699999999 0.2459259 0.75407412 0.1542247 0.8457753 0.3084494 0.6915506 0.51442599 0.48557401 0.4424064 0.5575936500000001 0.3035113 0.69648866 0.1903376 0.80966238 0.3806752 0.61932476 0.2645929 0.7354071 0.2275499 0.7724501 0.1561098 0.84389019 0.0978994 0.90210063 0.1957987 0.80420125 0.3681437 0.6318563 0.3166036 0.68339642 0.2172048 0.78279522 0.1362132 0.86378683 0.2724263 0.72757366 0.45434742 0.5456525800000001 0.3907388 0.60926122 0.268065 0.73193502 0.1681085 0.83189146 0.3362171 0.66378291 0.35099084 0.64900916 0.3018521 0.6981478800000001 0.2070846 0.79291541 0.1298666 0.87013339 0.2597332 0.74026678 0.48835424 0.5116457599999999 0.4199847 0.58001535 0.288129 0.711871 0.1806911 0.81930893 0.3613821 0.63861786 0.6027062 0.3972938 0.5183273 0.48167267 0.3555967 0.64440334 0.2230013 0.77699871 0.4460026 0.55399742 0.30999946 0.69000054 0.2665995 0.73340046 0.1828997 0.81710032 0.1146998 0.8853002 0.2293996 0.7706004 0.43132053 0.56867947 0.3709357 0.62906435 0.2544791 0.74552089 0.1595886 0.84041141 0.3191772 0.68082281 0.53231759 0.46768241 0.4577931 0.54220687 0.3140674 0.68593262 0.1969575 0.8030424900000001 0.393915 0.60608499 0.2548877 0.7451122999999999 0.2192034 0.78079657 0.1503837 0.84961625 0.0943085 0.90569155 0.1886169 0.8113831 0.34753891 0.65246109 0.2988835 0.70111654 0.205048 0.79495204 0.1285894 0.8714106 0.2571788 0.7428212 0.35493303 0.64506697 0.3052424 0.6947576 0.2094105 0.79058951 0.1313252 0.86867478 0.2626504 0.73734956 0.13650289 0.86349711 0.1173925 0.88260752 0.0805367 0.9194633 0.0505061 0.94949393 0.1010121 0.89898786 0.18612143 0.81387857 0.1600644 0.83993557 0.1098116 0.89018835 0.06886490000000001 0.93113507 0.1377299 0.86227014 0.19008129 0.80991871 0.1634699 0.83653009 0.112148 0.88785204 0.07033010000000001 0.92966992 0.1406602 0.85933985 0.33646478 0.66353522 0.2893597 0.71064029 0.1985142 0.80148578 0.124492 0.87550803 0.2489839 0.75101606 0.45876911 0.54123089 0.3945414 0.60545857 0.2706738 0.72932623 0.1697446 0.83025543 0.3394891 0.66051086 0.46852972 0.53147028 0.4029356 0.59706444 0.2764325 0.72356747 0.173356 0.82664401 0.346712 0.65328801 0.18019078 0.81980922 0.1549641 0.84503593 0.1063126 0.89368744 0.0666706 0.93332941 0.1333412 0.8666588200000001 0.24568979 0.75431021 0.2112932 0.7887067800000001 0.144957 0.85504302 0.09090520000000001 0.90909478 0.1818104 0.81818955 0.250917 0.7490830000000001 0.2157886 0.78421138 0.148041 0.85195897 0.0928393 0.90716071 0.1856786 0.81432142 0.41280097 0.58719903 0.3550088 0.64499116 0.2435526 0.75644742 0.1527364 0.84726364 0.3054727 0.69452728 0.56285336 0.43714664 0.4840539 0.51594611 0.3320835 0.66791652 0.2082557 0.79174426 0.4165115 0.58348851 0.5748284299999999 0.42517157 0.4943525 0.5056475499999999 0.3391488 0.66085122 0.2126865 0.78731348 0.425373 0.57462696 0.22107196 0.77892804 0.1901219 0.80987811 0.1304325 0.86956754 0.0817966 0.91820337 0.1635933 0.83640675 0.30143121 0.6985687900000001 0.2592308 0.74076916 0.1778444 0.82215559 0.1115295 0.88847045 0.2230591 0.7769409 0.30784435 0.69215565 0.2647461 0.73525385 0.1816282 0.81837183 0.1139024 0.88609759 0.2278048 0.77219518 0.29359276 0.70640724 0.2524898 0.7475102300000001 0.1732197 0.82678027 0.1086293 0.89137068 0.2172586 0.7827413600000001 0.30367319 0.69632681 0.2611589 0.73884105 0.1791672 0.82083282 0.1123591 0.8876409200000001 0.2247182 0.77528184 0.25635114 0.74364886 0.220462 0.7795380200000001 0.1512472 0.84875283 0.0948499 0.90515008 0.1896998 0.81030016 0.37951077 0.62048923 0.3263793 0.6736207400000001 0.2239114 0.77608865 0.140419 0.85958102 0.280838 0.71916203 0.39254118 0.60745882 0.3375854 0.66241459 0.2315993 0.76840071 0.1452402 0.85475976 0.2904805 0.70951953 0.33137063 0.66862937 0.2849787 0.71502126 0.1955087 0.8044913299999999 0.1226071 0.87739287 0.2452143 0.75478573 0.26851527 0.73148473 0.2309231 0.76907687 0.158424 0.8415759900000001 0.0993506 0.90064935 0.1987013 0.8012987 0.27773468 0.72226532 0.2388518 0.76114818 0.1638635 0.83613654 0.1027618 0.8972381699999999 0.2055237 0.79447634 0.23445468 0.76554532 0.201631 0.79836898 0.1383283 0.86167174 0.0867482 0.91325177 0.1734965 0.82650354 0.34709452 0.65290548 0.2985013 0.70149872 0.2047858 0.79521424 0.128425 0.87157503 0.2568499 0.7431500599999999 0.35901192 0.64098808 0.3087503 0.69124975 0.211817 0.78818297 0.1328344 0.86716559 0.2656688 0.73433118 0.30306631 0.6969336900000001 0.260637 0.73936297 0.1788091 0.82119088 0.1121345 0.88786546 0.2242691 0.77573093 0.2448614 0.7551386 0.2105808 0.7894192 0.1444682 0.85553178 0.0905987 0.90940128 0.1811974 0.81880257 0.25326865 0.74673135 0.217811 0.78218896 0.1494285 0.85057149 0.0937094 0.9062905999999999 0.1874188 0.8125812 0.21380125 0.7861987499999999 0.1838691 0.81613093 0.1261427 0.87385726 0.0791065 0.92089354 0.1582129 0.84178708 0.31651849 0.68348151 0.2722059 0.7277941 0.1867459 0.81325409 0.1171118 0.88288816 0.2342237 0.76577632 0.32738608 0.67261392 0.281552 0.71844797 0.1931578 0.80684221 0.1211328 0.87886715 0.2422657 0.7577343 0.27636879 0.72363121 0.2376772 0.7623228399999999 0.1630576 0.83694241 0.1022565 0.8977435499999999 0.2045129 0.79548709 0.06595503 0.93404497 0.0567213 0.94327868 0.0389135 0.96108653 0.0244034 0.97559664 0.0488067 0.95119328 0.08992956000000001 0.91007044 0.0773394 0.92266058 0.0530584 0.94694156 0.0332739 0.9667260600000001 0.06654789999999999 0.93345213 0.09184286999999999 0.90815713 0.0789849 0.92101513 0.0541873 0.94581271 0.0339819 0.96601814 0.0679637 0.9320362800000001 0.03532164 0.96467836 0.0303766 0.96962339 0.0208398 0.97916023 0.013069 0.98693099 0.026138 0.97386199 0.04816099 0.95183901 0.0414185 0.95858155 0.028415 0.97158502 0.0178196 0.98218043 0.0356391 0.96436087 0.04918565 0.95081435 0.0422997 0.95770034 0.0290195 0.97098047 0.0181987 0.98180131 0.0363974 0.96360262 0.087064 0.912936 0.074875 0.92512496 0.0513678 0.94863224 0.0322137 0.96778632 0.0644274 0.93557264 0.11871161 0.88128839 0.102092 0.89790802 0.0700398 0.92996015 0.0439233 0.9560767100000001 0.0878466 0.9121534100000001 0.12123727 0.87876273 0.1042641 0.89573594 0.07153 0.92847001 0.0448578 0.95514221 0.08971560000000001 0.91028442 0.04662637 0.95337363 0.0400987 0.9599013199999999 0.0275096 0.97249044 0.0172518 0.9827482400000001 0.0345035 0.96549649 0.06357496999999999 0.93642503 0.0546745 0.94532553 0.0375092 0.9624907700000001 0.0235227 0.97647726 0.0470455 0.95295453 0.06492756 0.93507244 0.0558377 0.94416229 0.0383073 0.96169274 0.0240232 0.9759768 0.0480464 0.9519536 0.10681684 0.89318316 0.0918625 0.90813752 0.06302190000000001 0.9369780599999999 0.0395222 0.96047777 0.0790445 0.92095554 0.14564457 0.85435543 0.1252543 0.87474567 0.0859303 0.91406971 0.0538885 0.94611151 0.107777 0.89222302 0.14874325 0.85125675 0.1279192 0.87208081 0.0877585 0.91224148 0.055035 0.9449650000000001 0.11007 0.88993 0.05720483 0.94279517 0.0491962 0.95080385 0.0337508 0.96624915 0.0211658 0.97883421 0.0423316 0.95766843 0.07799868 0.92200132 0.0670789 0.93292114 0.0460192 0.95398078 0.0288595 0.97114049 0.057719 0.94228098 0.07965815 0.92034185 0.068506 0.93149399 0.0469983 0.95300169 0.0294735 0.97052648 0.058947 0.94105297 0.05955864 0.94044136 0.0512204 0.94877957 0.0351396 0.9648604 0.0220367 0.9779633 0.0440734 0.95592661 0.08286745 0.91713255 0.071266 0.92873399 0.0488918 0.95110821 0.030661 0.96933904 0.0613219 0.93867809 0.10227151 0.89772849 0.0879535 0.9120465 0.0603402 0.93965981 0.0378405 0.96215954 0.0756809 0.92431908 0.05260293 0.94739707 0.0452385 0.9547614800000001 0.0310357 0.96896427 0.0194631 0.98053692 0.0389262 0.96107383 0.07318956 0.92681044 0.062943 0.93705698 0.0431818 0.95681816 0.0270801 0.97291986 0.0541603 0.94583973 0.09032746 0.90967254 0.0776816 0.92231838 0.0532932 0.9467068 0.0334212 0.9665788400000001 0.06684229999999999 0.93315768 0.07751969 0.92248031 0.0666669 0.93333306 0.0457366 0.95426338 0.0286823 0.97131771 0.0573646 0.9426354300000001 0.10785772 0.89214228 0.0927576 0.90724236 0.0636361 0.9363639499999999 0.0399074 0.9600926400000001 0.0798147 0.92018529 0.13311345 0.86688655 0.1144776 0.88552244 0.07853690000000001 0.9214630700000001 0.049252 0.95074803 0.09850390000000001 0.90149605 0.06846636 0.9315336400000001 0.0588811 0.94111893 0.0403951 0.95960485 0.0253326 0.97466745 0.0506651 0.9493349 0.09526128 0.90473872 0.0819247 0.9180753 0.0562042 0.94379585 0.0352467 0.96475333 0.07049329999999999 0.92950666 0.11756745 0.88243255 0.101108 0.898892 0.0693648 0.93063521 0.0435 0.95650004 0.08699990000000001 0.91300009 0.09082278000000001 0.90917722 0.0781076 0.92189241 0.0535854 0.94641456 0.0336044 0.96639557 0.0672089 0.93279114 0.12636709 0.87363291 0.1086757 0.8913243 0.0745566 0.92544342 0.0467558 0.95324418 0.0935116 0.9064883500000001 0.15595693 0.84404307 0.134123 0.86587704 0.0920146 0.90798541 0.0577041 0.9422959400000001 0.1154081 0.8845918699999999 0.08021581 0.91978419 0.06898559999999999 0.93101441 0.0473273 0.95267267 0.0296798 0.97032015 0.0593597 0.9406403 0.11160898 0.88839102 0.09598370000000001 0.90401628 0.0658493 0.9341507 0.0412953 0.95870468 0.0825906 0.91740935 0.13774309 0.86225691 0.1184591 0.8815409400000001 0.0812684 0.9187315700000001 0.0509649 0.94903505 0.1019299 0.89807011 0.06595503 0.93404497 0.0567213 0.94327868 0.0389135 0.96108653 0.0244034 0.97559664 0.0488067 0.95119328 0.08992956000000001 0.91007044 0.0773394 0.92266058 0.0530584 0.94694156 0.0332739 0.9667260600000001 0.06654789999999999 0.93345213 0.09184286999999999 0.90815713 0.0789849 0.92101513 0.0541873 0.94581271 0.0339819 0.96601814 0.0679637 0.9320362800000001 0.03532164 0.96467836 0.0303766 0.96962339 0.0208398 0.97916023 0.013069 0.98693099 0.026138 0.97386199 0.04816099 0.95183901 0.0414185 0.95858155 0.028415 0.97158502 0.0178196 0.98218043 0.0356391 0.96436087 0.04918565 0.95081435 0.0422997 0.95770034 0.0290195 0.97098047 0.0181987 0.98180131 0.0363974 0.96360262 0.087064 0.912936 0.074875 0.92512496 0.0513678 0.94863224 0.0322137 0.96778632 0.0644274 0.93557264 0.11871161 0.88128839 0.102092 0.89790802 0.0700398 0.92996015 0.0439233 0.9560767100000001 0.0878466 0.9121534100000001 0.12123727 0.87876273 0.1042641 0.89573594 0.07153 0.92847001 0.0448578 0.95514221 0.08971560000000001 0.91028442 0.04662637 0.95337363 0.0400987 0.9599013199999999 0.0275096 0.97249044 0.0172518 0.9827482400000001 0.0345035 0.96549649 0.06357496999999999 0.93642503 0.0546745 0.94532553 0.0375092 0.9624907700000001 0.0235227 0.97647726 0.0470455 0.95295453 0.06492756 0.93507244 0.0558377 0.94416229 0.0383073 0.96169274 0.0240232 0.9759768 0.0480464 0.9519536 0.10681684 0.89318316 0.0918625 0.90813752 0.06302190000000001 0.9369780599999999 0.0395222 0.96047777 0.0790445 0.92095554 0.14564457 0.85435543 0.1252543 0.87474567 0.0859303 0.91406971 0.0538885 0.94611151 0.107777 0.89222302 0.14874325 0.85125675 0.1279192 0.87208081 0.0877585 0.91224148 0.055035 0.9449650000000001 0.11007 0.88993 0.05720483 0.94279517 0.0491962 0.95080385 0.0337508 0.96624915 0.0211658 0.97883421 0.0423316 0.95766843 0.07799868 0.92200132 0.0670789 0.93292114 0.0460192 0.95398078 0.0288595 0.97114049 0.057719 0.94228098 0.07965815 0.92034185 0.068506 0.93149399 0.0469983 0.95300169 0.0294735 0.97052648 0.058947 0.94105297 0.07597039 0.9240296099999999 0.0653345 0.9346654599999999 0.0448225 0.95517747 0.028109 0.97189096 0.0562181 0.94378191 0.07857881999999999 0.92142118 0.06757779999999999 0.93242222 0.0463615 0.9536384999999999 0.0290742 0.97092584 0.0581483 0.94185168 0.06633371 0.93366629 0.057047 0.94295301 0.0391369 0.96086311 0.0245435 0.97545653 0.0490869 0.95091306 0.09820263 0.90179737 0.0844543 0.91554574 0.0579396 0.94206045 0.036335 0.96366503 0.0726699 0.92733005 0.10157439 0.89842561 0.087354 0.9126460199999999 0.0599289 0.94007111 0.0375825 0.96241747 0.0751651 0.92483495 0.08574584 0.91425416 0.0737414 0.9262585800000001 0.05059 0.94940996 0.031726 0.9682740399999999 0.06345190000000001 0.93654808 0.06948131 0.93051869 0.0597539 0.94024607 0.040994 0.95900603 0.0257081 0.97429191 0.0514162 0.94858383 0.07186694 0.92813306 0.0618056 0.93819444 0.0424015 0.95759851 0.0265908 0.97340923 0.0531815 0.94681847 0.06066775 0.93933225 0.0521743 0.94782573 0.035794 0.96420602 0.0224471 0.97755293 0.0448941 0.95510586 0.08981457 0.91018543 0.0772405 0.92275947 0.0529906 0.9470094100000001 0.0332314 0.96676861 0.0664628 0.9335372199999999 0.09289833 0.90710167 0.07989259999999999 0.92010744 0.05481 0.94518999 0.0343724 0.96562762 0.06874479999999999 0.93125524 0.07842178 0.92157822 0.06744269999999999 0.93255727 0.0462688 0.95373115 0.0290161 0.97098394 0.0580321 0.94196788 0.06336061 0.93663939 0.0544901 0.94550988 0.0373828 0.96261724 0.0234434 0.97655657 0.0468869 0.95311315 0.06553608 0.93446392 0.056361 0.94363897 0.0386663 0.96133371 0.0242483 0.97575165 0.0484967 0.9515033000000001 0.05532345 0.9446765499999999 0.0475782 0.95242183 0.0326408 0.96735916 0.0204697 0.97953032 0.0409394 0.95906065 0.08190268000000001 0.91809732 0.07043629999999999 0.9295637 0.0483226 0.95167742 0.030304 0.9696960100000001 0.060608 0.93939202 0.08471479 0.91528521 0.07285469999999999 0.92714528 0.0499817 0.95001828 0.0313445 0.96865553 0.06268890000000001 0.93731106 0.07151349999999999 0.9284865 0.0615016 0.93849839 0.042193 0.9578070400000001 0.02646 0.97354001 0.05292 0.94708001 0.13850556 0.86149444 0.1191148 0.88088522 0.08171829999999999 0.91828172 0.0512471 0.94875294 0.1024941 0.89750589 0.18885207 0.81114793 0.1624128 0.83758722 0.1114227 0.88857728 0.0698753 0.93012473 0.1397505 0.86024947 0.19287002 0.80712998 0.1658682 0.83413178 0.1137933 0.88620669 0.07136190000000001 0.92863809 0.1427238 0.8572761800000001 0.07417544 0.92582456 0.0637909 0.93620912 0.0437635 0.95623649 0.0274449 0.97255509 0.0548898 0.94511017 0.10113808 0.89886192 0.08697870000000001 0.91302125 0.0596715 0.9403285300000001 0.0374211 0.96257891 0.0748422 0.92515782 0.10328986 0.89671014 0.0888293 0.91117072 0.060941 0.93905898 0.0382172 0.96178275 0.0764345 0.9235655 0.18283441 0.81716559 0.1572376 0.84276241 0.1078723 0.8921277 0.06764870000000001 0.93235127 0.1352975 0.86470254 0.24929438 0.75070562 0.2143932 0.78560684 0.1470837 0.85291632 0.0922389 0.90776108 0.1844778 0.81552216 0.25459827 